<?xml version="1.0"?>
<MethodSetup Method="BDT::BDTG">
  <GeneralInfo>
    <Info name="TMVA Release" value="4.2.0 [262656]"/>
    <Info name="ROOT Release" value="5.34/20 [336404]"/>
    <Info name="Creator" value="cervenkov"/>
    <Info name="Date" value="Fri Dec 25 14:03:38 2015"/>
    <Info name="Host" value="Linux ipnp29 3.13.0-44-generic #73-Ubuntu SMP Tue Dec 16 00:22:43 UTC 2014 x86_64 x86_64 x86_64 GNU/Linux"/>
    <Info name="Dir" value="/home/cervenkov/bin/belle/TMVA-v4.2.0/test"/>
    <Info name="Training events" value="51119"/>
    <Info name="TrainingTime" value="6.05160570e+01"/>
    <Info name="AnalysisType" value="Classification"/>
  </GeneralInfo>
  <Options>
    <Option name="V" modified="Yes">False</Option>
    <Option name="VerbosityLevel" modified="No">Default</Option>
    <Option name="VarTransform" modified="No">None</Option>
    <Option name="H" modified="Yes">False</Option>
    <Option name="CreateMVAPdfs" modified="No">False</Option>
    <Option name="IgnoreNegWeightsInTraining" modified="No">False</Option>
    <Option name="NTrees" modified="Yes">1000</Option>
    <Option name="MaxDepth" modified="Yes">2</Option>
    <Option name="MinNodeSize" modified="Yes">2.5%</Option>
    <Option name="nCuts" modified="Yes">20</Option>
    <Option name="BoostType" modified="Yes">Grad</Option>
    <Option name="AdaBoostR2Loss" modified="No">quadratic</Option>
    <Option name="UseBaggedBoost" modified="Yes">True</Option>
    <Option name="Shrinkage" modified="Yes">1.000000e-01</Option>
    <Option name="AdaBoostBeta" modified="No">5.000000e-01</Option>
    <Option name="UseRandomisedTrees" modified="No">False</Option>
    <Option name="UseNvars" modified="No">5</Option>
    <Option name="UsePoissonNvars" modified="No">True</Option>
    <Option name="BaggedSampleFraction" modified="Yes">5.000000e-01</Option>
    <Option name="UseYesNoLeaf" modified="No">True</Option>
    <Option name="NegWeightTreatment" modified="No">ignorenegweightsintraining</Option>
    <Option name="Css" modified="No">1.000000e+00</Option>
    <Option name="Cts_sb" modified="No">1.000000e+00</Option>
    <Option name="Ctb_ss" modified="No">1.000000e+00</Option>
    <Option name="Cbb" modified="No">1.000000e+00</Option>
    <Option name="NodePurityLimit" modified="No">5.000000e-01</Option>
    <Option name="SeparationType" modified="No">giniindex</Option>
    <Option name="DoBoostMonitor" modified="No">False</Option>
    <Option name="UseFisherCuts" modified="No">False</Option>
    <Option name="MinLinCorrForFisher" modified="No">8.000000e-01</Option>
    <Option name="UseExclusiveVars" modified="No">False</Option>
    <Option name="DoPreselection" modified="No">False</Option>
    <Option name="SigToBkgFraction" modified="No">1.000000e+00</Option>
    <Option name="PruneMethod" modified="No">nopruning</Option>
    <Option name="PruneStrength" modified="No">0.000000e+00</Option>
    <Option name="PruningValFraction" modified="No">5.000000e-01</Option>
    <Option name="nEventsMin" modified="No">0</Option>
    <Option name="UseBaggedGrad" modified="No">False</Option>
    <Option name="GradBaggingFraction" modified="No">5.000000e-01</Option>
    <Option name="UseNTrainEvents" modified="No">0</Option>
    <Option name="NNodesMax" modified="No">0</Option>
  </Options>
  <Variables NVar="21">
    <Variable VarIndex="0" Expression="mbc" Label="mbc" Title="mbc" Unit="" Internal="mbc" Type="F" Min="5.27000046e+00" Max="5.28905630e+00"/>
    <Variable VarIndex="1" Expression="shcosthb" Label="shcosthb" Title="shcosthb" Unit="" Internal="shcosthb" Type="F" Min="6.92378217e-06" Max="9.99941230e-01"/>
    <Variable VarIndex="2" Expression="shcostht" Label="shcostht" Title="shcostht" Unit="" Internal="shcostht" Type="F" Min="3.10201649e-05" Max="9.99992192e-01"/>
    <Variable VarIndex="3" Expression="k1mm2" Label="k1mm2" Title="k1mm2" Unit="" Internal="k1mm2" Type="F" Min="-6.57643890e+01" Max="2.84851494e+01"/>
    <Variable VarIndex="4" Expression="k1et" Label="k1et" Title="k1et" Unit="" Internal="k1et" Type="F" Min="3.20819902e+00" Max="1.44610796e+01"/>
    <Variable VarIndex="5" Expression="k1hoo0" Label="k1hoo0" Title="k1hoo0" Unit="" Internal="k1hoo0" Type="F" Min="2.24611373e-04" Max="8.72309208e-01"/>
    <Variable VarIndex="6" Expression="k1hoo1" Label="k1hoo1" Title="k1hoo1" Unit="" Internal="k1hoo1" Type="F" Min="-4.54898775e-02" Max="9.76446271e-02"/>
    <Variable VarIndex="7" Expression="k1hoo2" Label="k1hoo2" Title="k1hoo2" Unit="" Internal="k1hoo2" Type="F" Min="-2.52805725e-02" Max="3.13497752e-01"/>
    <Variable VarIndex="8" Expression="k1hoo3" Label="k1hoo3" Title="k1hoo3" Unit="" Internal="k1hoo3" Type="F" Min="-4.04035300e-02" Max="6.32733032e-02"/>
    <Variable VarIndex="9" Expression="k1hoo4" Label="k1hoo4" Title="k1hoo4" Unit="" Internal="k1hoo4" Type="F" Min="-2.67118402e-02" Max="2.66452342e-01"/>
    <Variable VarIndex="10" Expression="k1hso00" Label="k1hso00" Title="k1hso00" Unit="" Internal="k1hso00" Type="F" Min="0.00000000e+00" Max="7.29988813e+00"/>
    <Variable VarIndex="11" Expression="k1hso01" Label="k1hso01" Title="k1hso01" Unit="" Internal="k1hso01" Type="F" Min="-1.39383078e+00" Max="1.18052220e+00"/>
    <Variable VarIndex="12" Expression="k1hso02" Label="k1hso02" Title="k1hso02" Unit="" Internal="k1hso02" Type="F" Min="-1.36540902e+00" Max="2.61650991e+00"/>
    <Variable VarIndex="13" Expression="k1hso03" Label="k1hso03" Title="k1hso03" Unit="" Internal="k1hso03" Type="F" Min="-1.52343559e+00" Max="1.24590695e+00"/>
    <Variable VarIndex="14" Expression="k1hso04" Label="k1hso04" Title="k1hso04" Unit="" Internal="k1hso04" Type="F" Min="-9.43042934e-01" Max="1.47598410e+00"/>
    <Variable VarIndex="15" Expression="k1hso10" Label="k1hso10" Title="k1hso10" Unit="" Internal="k1hso10" Type="F" Min="0.00000000e+00" Max="4.56405544e+00"/>
    <Variable VarIndex="16" Expression="k1hso12" Label="k1hso12" Title="k1hso12" Unit="" Internal="k1hso12" Type="F" Min="-1.22008634e+00" Max="2.19312453e+00"/>
    <Variable VarIndex="17" Expression="k1hso14" Label="k1hso14" Title="k1hso14" Unit="" Internal="k1hso14" Type="F" Min="-7.36628771e-01" Max="1.41899264e+00"/>
    <Variable VarIndex="18" Expression="k1hso20" Label="k1hso20" Title="k1hso20" Unit="" Internal="k1hso20" Type="F" Min="5.88167505e-03" Max="3.21036005e+00"/>
    <Variable VarIndex="19" Expression="k1hso22" Label="k1hso22" Title="k1hso22" Unit="" Internal="k1hso22" Type="F" Min="-9.88996387e-01" Max="1.76241004e+00"/>
    <Variable VarIndex="20" Expression="k1hso24" Label="k1hso24" Title="k1hso24" Unit="" Internal="k1hso24" Type="F" Min="-7.75084376e-01" Max="1.11771071e+00"/>
  </Variables>
  <Spectators NSpec="0"/>
  <Classes NClass="2">
    <Class Name="Signal" Index="0"/>
    <Class Name="Background" Index="1"/>
  </Classes>
  <Transformations NTransformations="0"/>
  <MVAPdfs/>
  <Weights NTrees="1000" AnalysisType="1">
    <BinaryTree type="DecisionTree" boostWeight="1.0000000000000000e+00" itree="0">
      <Node pos="s" depth="0" NCoef="0" IVar="2" Cut="7.6190423965454102e-01" cType="1" res="-1.7155884997919202e-03" rms="4.9999704957008362e-01" purity="4.9828439950942993e-01" nType="0">
        <Node pos="l" depth="1" NCoef="0" IVar="0" Cut="5.2736377716064453e+00" cType="1" res="3.4026670455932617e-01" rms="3.6635854840278625e-01" purity="8.4026670455932617e-01" nType="0">
          <Node pos="l" depth="2" NCoef="0" IVar="-1" Cut="0.0000000000000000e+00" cType="1" res="-1.0939627885818481e-02" rms="4.9572822451591492e-01" purity="4.3478089570999146e-01" nType="-99"/>
          <Node pos="r" depth="2" NCoef="0" IVar="-1" Cut="0.0000000000000000e+00" cType="1" res="8.8102236390113831e-02" rms="3.3471938967704773e-01" purity="8.7143367528915405e-01" nType="-99"/>
        </Node>
        <Node pos="r" depth="1" NCoef="0" IVar="2" Cut="9.0929430723190308e-01" cType="1" res="-2.6914530992507935e-01" rms="4.2137965559959412e-01" purity="2.3085467517375946e-01" nType="0">
          <Node pos="l" depth="2" NCoef="0" IVar="-1" Cut="0.0000000000000000e+00" cType="1" res="-1.9899869337677956e-02" rms="4.8457008600234985e-01" purity="3.7674489617347717e-01" nType="-99"/>
          <Node pos="r" depth="2" NCoef="0" IVar="-1" Cut="0.0000000000000000e+00" cType="1" res="-5.0035726279020309e-02" rms="3.5049316287040710e-01" purity="1.4341266453266144e-01" nType="-99"/>
        </Node>
      </Node>
    </BinaryTree>
    <BinaryTree type="DecisionTree" boostWeight="1.0000000000000000e+00" itree="1">
      <Node pos="s" depth="0" NCoef="0" IVar="2" Cut="8.0952131748199463e-01" cType="1" res="-1.2473346665501595e-02" rms="4.8076415061950684e-01" purity="4.9445095658302307e-01" nType="0">
        <Node pos="l" depth="1" NCoef="0" IVar="0" Cut="5.2744312286376953e+00" cType="1" res="2.6050561666488647e-01" rms="3.9661049842834473e-01" purity="7.9537427425384521e-01" nType="0">
          <Node pos="l" depth="2" NCoef="0" IVar="-1" Cut="0.0000000000000000e+00" cType="1" res="-1.3739845715463161e-02" rms="4.9028164148330688e-01" purity="4.2223280668258667e-01" nType="-99"/>
          <Node pos="r" depth="2" NCoef="0" IVar="-1" Cut="0.0000000000000000e+00" cType="1" res="7.0246048271656036e-02" rms="3.6180856823921204e-01" purity="8.4115380048751831e-01" nType="-99"/>
        </Node>
        <Node pos="r" depth="1" NCoef="0" IVar="7" Cut="9.8794149234890938e-03" cType="1" res="-2.7756142616271973e-01" rms="4.0024870634078979e-01" purity="2.0222629606723785e-01" nType="0">
          <Node pos="l" depth="2" NCoef="0" IVar="-1" Cut="0.0000000000000000e+00" cType="1" res="-2.3457473143935204e-02" rms="4.6977335214614868e-01" purity="3.3184009790420532e-01" nType="-99"/>
          <Node pos="r" depth="2" NCoef="0" IVar="-1" Cut="0.0000000000000000e+00" cType="1" res="-4.9206826835870743e-02" rms="3.2998344302177429e-01" purity="1.2551647424697876e-01" nType="-99"/>
        </Node>
      </Node>
    </BinaryTree>
    <BinaryTree type="DecisionTree" boostWeight="1.0000000000000000e+00" itree="2">
      <Node pos="s" depth="0" NCoef="0" IVar="2" Cut="7.6192885637283325e-01" cType="1" res="-1.5176564455032349e-02" rms="4.6573561429977417e-01" purity="4.9646571278572083e-01" nType="0">
        <Node pos="l" depth="1" NCoef="0" IVar="2" Cut="6.1682337522506714e-01" cType="1" res="2.5641751289367676e-01" rms="3.7132361531257629e-01" purity="8.2668501138687134e-01" nType="0">
          <Node pos="l" depth="2" NCoef="0" IVar="-1" Cut="0.0000000000000000e+00" cType="1" res="7.7544458210468292e-02" rms="3.1105893850326538e-01" purity="8.8680702447891235e-01" nType="-99"/>
          <Node pos="r" depth="2" NCoef="0" IVar="-1" Cut="0.0000000000000000e+00" cType="1" res="1.7679322510957718e-02" rms="4.6667507290840149e-01" purity="6.5402507781982422e-01" nType="-99"/>
        </Node>
        <Node pos="r" depth="1" NCoef="0" IVar="0" Cut="5.2763252258300781e+00" cType="1" res="-2.2930395603179932e-01" rms="4.1858115792274475e-01" purity="2.3611761629581451e-01" nType="0">
          <Node pos="l" depth="2" NCoef="0" IVar="-1" Cut="0.0000000000000000e+00" cType="1" res="-5.0520937889814377e-02" rms="2.8915518522262573e-01" purity="9.5005288720130920e-02" nType="-99"/>
          <Node pos="r" depth="2" NCoef="0" IVar="-1" Cut="0.0000000000000000e+00" cType="1" res="-2.3461960256099701e-02" rms="4.5894390344619751e-01" purity="3.1727230548858643e-01" nType="-99"/>
        </Node>
      </Node>
    </BinaryTree>
    <BinaryTree type="DecisionTree" boostWeight="1.0000000000000000e+00" itree="3">
      <Node pos="s" depth="0" NCoef="0" IVar="2" Cut="8.5713881254196167e-01" cType="1" res="-1.2285094708204269e-02" rms="4.5185893774032593e-01" purity="5.0397074222564697e-01" nType="0">
        <Node pos="l" depth="1" NCoef="0" IVar="2" Cut="6.5306127071380615e-01" cType="1" res="1.8540318310260773e-01" rms="4.0347993373870850e-01" purity="7.6048785448074341e-01" nType="0">
          <Node pos="l" depth="2" NCoef="0" IVar="-1" Cut="0.0000000000000000e+00" cType="1" res="6.9591216742992401e-02" rms="3.1390330195426941e-01" purity="8.8354176282882690e-01" nType="-99"/>
          <Node pos="r" depth="2" NCoef="0" IVar="-1" Cut="0.0000000000000000e+00" cType="1" res="6.0249953530728817e-03" rms="4.8309624195098877e-01" purity="5.5397063493728638e-01" nType="-99"/>
        </Node>
        <Node pos="r" depth="1" NCoef="0" IVar="7" Cut="6.7458236590027809e-03" cType="1" res="-2.6175263524055481e-01" rms="3.8058453798294067e-01" purity="1.8026582896709442e-01" nType="0">
          <Node pos="l" depth="2" NCoef="0" IVar="-1" Cut="0.0000000000000000e+00" cType="1" res="-1.7914738506078720e-02" rms="4.7094374895095825e-01" purity="3.3893039822578430e-01" nType="-99"/>
          <Node pos="r" depth="2" NCoef="0" IVar="-1" Cut="0.0000000000000000e+00" cType="1" res="-4.5128434896469116e-02" rms="3.1905430555343628e-01" purity="1.1706998199224472e-01" nType="-99"/>
        </Node>
      </Node>
    </BinaryTree>
    <BinaryTree type="DecisionTree" boostWeight="1.0000000000000000e+00" itree="4">
      <Node pos="s" depth="0" NCoef="0" IVar="2" Cut="8.0953520536422729e-01" cType="1" res="-1.6734212636947632e-02" rms="4.4020208716392517e-01" purity="5.0375008583068848e-01" nType="0">
        <Node pos="l" depth="1" NCoef="0" IVar="0" Cut="5.2745323181152344e+00" cType="1" res="1.8486866354942322e-01" rms="3.8102969527244568e-01" purity="8.0003058910369873e-01" nType="0">
          <Node pos="l" depth="2" NCoef="0" IVar="-1" Cut="0.0000000000000000e+00" cType="1" res="-2.0615722984075546e-02" rms="4.7676309943199158e-01" purity="4.1914048790931702e-01" nType="-99"/>
          <Node pos="r" depth="2" NCoef="0" IVar="-1" Cut="0.0000000000000000e+00" cType="1" res="5.6083913892507553e-02" rms="3.4689939022064209e-01" purity="8.5012716054916382e-01" nType="-99"/>
        </Node>
        <Node pos="r" depth="1" NCoef="0" IVar="7" Cut="5.3283101879060268e-03" cType="1" res="-2.1371214091777802e-01" rms="4.0341752767562866e-01" purity="2.1426655352115631e-01" nType="0">
          <Node pos="l" depth="2" NCoef="0" IVar="-1" Cut="0.0000000000000000e+00" cType="1" res="-8.0817770212888718e-03" rms="4.8659470677375793e-01" purity="3.9844986796379089e-01" nType="-99"/>
          <Node pos="r" depth="2" NCoef="0" IVar="-1" Cut="0.0000000000000000e+00" cType="1" res="-3.9102084934711456e-02" rms="3.5345447063446045e-01" purity="1.5126241743564606e-01" nType="-99"/>
        </Node>
      </Node>
    </BinaryTree>
    <BinaryTree type="DecisionTree" boostWeight="1.0000000000000000e+00" itree="5">
      <Node pos="s" depth="0" NCoef="0" IVar="2" Cut="7.1432733535766602e-01" cType="1" res="-2.2585676982998848e-02" rms="4.2988663911819458e-01" purity="4.9951457977294922e-01" nType="0">
        <Node pos="l" depth="1" NCoef="0" IVar="0" Cut="5.2745323181152344e+00" cType="1" res="2.0434959232807159e-01" rms="3.3523267507553101e-01" purity="8.5846680402755737e-01" nType="0">
          <Node pos="l" depth="2" NCoef="0" IVar="-1" Cut="0.0000000000000000e+00" cType="1" res="-4.0584448724985123e-03" rms="4.8875755071640015e-01" purity="5.3038817644119263e-01" nType="-99"/>
          <Node pos="r" depth="2" NCoef="0" IVar="-1" Cut="0.0000000000000000e+00" cType="1" res="6.2724448740482330e-02" rms="3.0260848999023438e-01" purity="8.9563149213790894e-01" nType="-99"/>
        </Node>
        <Node pos="r" depth="1" NCoef="0" IVar="0" Cut="5.2754397392272949e+00" cType="1" res="-1.7176927626132965e-01" rms="4.1988158226013184e-01" purity="2.6354515552520752e-01" nType="0">
          <Node pos="l" depth="2" NCoef="0" IVar="-1" Cut="0.0000000000000000e+00" cType="1" res="-4.6323865652084351e-02" rms="2.6996701955795288e-01" purity="8.4580466151237488e-02" nType="-99"/>
          <Node pos="r" depth="2" NCoef="0" IVar="-1" Cut="0.0000000000000000e+00" cType="1" res="-1.6835471615195274e-02" rms="4.5393738150596619e-01" purity="3.4164911508560181e-01" nType="-99"/>
        </Node>
      </Node>
    </BinaryTree>
    <BinaryTree type="DecisionTree" boostWeight="1.0000000000000000e+00" itree="6">
      <Node pos="s" depth="0" NCoef="0" IVar="2" Cut="7.6193779706954956e-01" cType="1" res="-3.0134394764900208e-02" rms="4.2015829682350159e-01" purity="4.9358785152435303e-01" nType="0">
        <Node pos="l" depth="1" NCoef="0" IVar="0" Cut="5.2754058837890625e+00" cType="1" res="1.6444244980812073e-01" rms="3.5285964608192444e-01" purity="8.3464628458023071e-01" nType="0">
          <Node pos="l" depth="2" NCoef="0" IVar="-1" Cut="0.0000000000000000e+00" cType="1" res="-7.2975582443177700e-03" rms="4.7831386327743530e-01" purity="5.4013299942016602e-01" nType="-99"/>
          <Node pos="r" depth="2" NCoef="0" IVar="-1" Cut="0.0000000000000000e+00" cType="1" res="5.5401731282472610e-02" rms="3.1424504518508911e-01" purity="8.8438582420349121e-01" nType="-99"/>
        </Node>
        <Node pos="r" depth="1" NCoef="0" IVar="0" Cut="5.2754449844360352e+00" cType="1" res="-1.8036963045597076e-01" rms="4.0607601404190063e-01" purity="2.3025231063365936e-01" nType="0">
          <Node pos="l" depth="2" NCoef="0" IVar="-1" Cut="0.0000000000000000e+00" cType="1" res="-4.5079730451107025e-02" rms="2.4834054708480835e-01" purity="6.8977743387222290e-02" nType="-99"/>
          <Node pos="r" depth="2" NCoef="0" IVar="-1" Cut="0.0000000000000000e+00" cType="1" res="-1.9239900633692741e-02" rms="4.4580435752868652e-01" purity="3.0127781629562378e-01" nType="-99"/>
        </Node>
      </Node>
    </BinaryTree>
    <BinaryTree type="DecisionTree" boostWeight="1.0000000000000000e+00" itree="7">
      <Node pos="s" depth="0" NCoef="0" IVar="2" Cut="8.5718035697937012e-01" cType="1" res="-1.9540561363101006e-02" rms="4.1371697187423706e-01" purity="5.0834429264068604e-01" nType="0">
        <Node pos="l" depth="1" NCoef="0" IVar="0" Cut="5.2735986709594727e+00" cType="1" res="1.1692129075527191e-01" rms="3.8498687744140625e-01" purity="7.5909811258316040e-01" nType="0">
          <Node pos="l" depth="2" NCoef="0" IVar="-1" Cut="0.0000000000000000e+00" cType="1" res="-2.8073707595467567e-02" rms="4.3706238269805908e-01" purity="2.9939973354339600e-01" nType="-99"/>
          <Node pos="r" depth="2" NCoef="0" IVar="-1" Cut="0.0000000000000000e+00" cType="1" res="3.7629391998052597e-02" rms="3.6640796065330505e-01" purity="8.0524230003356934e-01" nType="-99"/>
        </Node>
        <Node pos="r" depth="1" NCoef="0" IVar="7" Cut="4.0341103449463844e-03" cType="1" res="-1.9258974492549896e-01" rms="3.8301476836204529e-01" purity="1.9035992026329041e-01" nType="0">
          <Node pos="l" depth="2" NCoef="0" IVar="-1" Cut="0.0000000000000000e+00" cType="1" res="-3.9954911917448044e-03" rms="4.8127812147140503e-01" purity="3.9025002717971802e-01" nType="-99"/>
          <Node pos="r" depth="2" NCoef="0" IVar="-1" Cut="0.0000000000000000e+00" cType="1" res="-3.5698518157005310e-02" rms="3.3715087175369263e-01" purity="1.3589051365852356e-01" nType="-99"/>
        </Node>
      </Node>
    </BinaryTree>
    <BinaryTree type="DecisionTree" boostWeight="1.0000000000000000e+00" itree="8">
      <Node pos="s" depth="0" NCoef="0" IVar="2" Cut="8.5713392496109009e-01" cType="1" res="-2.5798575952649117e-02" rms="4.0708300471305847e-01" purity="5.0038033723831177e-01" nType="0">
        <Node pos="l" depth="1" NCoef="0" IVar="2" Cut="5.7143247127532959e-01" cType="1" res="1.0390633344650269e-01" rms="3.8344964385032654e-01" purity="7.5837099552154541e-01" nType="0">
          <Node pos="l" depth="2" NCoef="0" IVar="-1" Cut="0.0000000000000000e+00" cType="1" res="5.6323602795600891e-02" rms="2.8189361095428467e-01" purity="9.0492790937423706e-01" nType="-99"/>
          <Node pos="r" depth="2" NCoef="0" IVar="-1" Cut="0.0000000000000000e+00" cType="1" res="2.0590156782418489e-03" rms="4.5849412679672241e-01" purity="5.8611238002777100e-01" nType="-99"/>
        </Node>
        <Node pos="r" depth="1" NCoef="0" IVar="7" Cut="9.4888200983405113e-03" cType="1" res="-1.8457429111003876e-01" rms="3.7786662578582764e-01" purity="1.8456614017486572e-01" nType="0">
          <Node pos="l" depth="2" NCoef="0" IVar="-1" Cut="0.0000000000000000e+00" cType="1" res="-1.2554949149489403e-02" rms="4.5932531356811523e-01" purity="3.2162180542945862e-01" nType="-99"/>
          <Node pos="r" depth="2" NCoef="0" IVar="-1" Cut="0.0000000000000000e+00" cType="1" res="-3.6470729857683182e-02" rms="3.1245779991149902e-01" purity="1.1253033578395844e-01" nType="-99"/>
        </Node>
      </Node>
    </BinaryTree>
    <BinaryTree type="DecisionTree" boostWeight="1.0000000000000000e+00" itree="9">
      <Node pos="s" depth="0" NCoef="0" IVar="2" Cut="8.5715240240097046e-01" cType="1" res="-3.3940698951482773e-02" rms="4.0171462297439575e-01" purity="4.9378278851509094e-01" nType="0">
        <Node pos="l" depth="1" NCoef="0" IVar="16" Cut="1.3375632464885712e-01" cType="1" res="8.3113677799701691e-02" rms="3.8725712895393372e-01" purity="7.4977308511734009e-01" nType="0">
          <Node pos="l" depth="2" NCoef="0" IVar="-1" Cut="0.0000000000000000e+00" cType="1" res="3.4960549324750900e-02" rms="3.5055756568908691e-01" purity="8.1649178266525269e-01" nType="-99"/>
          <Node pos="r" depth="2" NCoef="0" IVar="-1" Cut="0.0000000000000000e+00" cType="1" res="-1.5206971205770969e-02" rms="4.6227791905403137e-01" purity="5.1049435138702393e-01" nType="-99"/>
        </Node>
        <Node pos="r" depth="1" NCoef="0" IVar="7" Cut="6.7458236590027809e-03" cType="1" res="-1.7853417992591858e-01" rms="3.7098816037178040e-01" purity="1.7756628990173340e-01" nType="0">
          <Node pos="l" depth="2" NCoef="0" IVar="-1" Cut="0.0000000000000000e+00" cType="1" res="-9.6921455115079880e-03" rms="4.6729066967964172e-01" purity="3.4034866094589233e-01" nType="-99"/>
          <Node pos="r" depth="2" NCoef="0" IVar="-1" Cut="0.0000000000000000e+00" cType="1" res="-3.4739501774311066e-02" rms="3.1400111317634583e-01" purity="1.1443615704774857e-01" nType="-99"/>
        </Node>
      </Node>
    </BinaryTree>
    <BinaryTree type="DecisionTree" boostWeight="1.0000000000000000e+00" itree="10">
      <Node pos="s" depth="0" NCoef="0" IVar="2" Cut="9.0475589036941528e-01" cType="1" res="-2.9575807973742485e-02" rms="3.9599969983100891e-01" purity="4.9869447946548462e-01" nType="0">
        <Node pos="l" depth="1" NCoef="0" IVar="0" Cut="5.2754054069519043e+00" cType="1" res="6.4697667956352234e-02" rms="3.9489936828613281e-01" purity="6.9893801212310791e-01" nType="0">
          <Node pos="l" depth="2" NCoef="0" IVar="-1" Cut="0.0000000000000000e+00" cType="1" res="-2.1710658445954323e-02" rms="4.2718726396560669e-01" purity="3.7604689598083496e-01" nType="-99"/>
          <Node pos="r" depth="2" NCoef="0" IVar="-1" Cut="0.0000000000000000e+00" cType="1" res="2.7703151106834412e-02" rms="3.7511500716209412e-01" purity="7.6895880699157715e-01" nType="-99"/>
        </Node>
        <Node pos="r" depth="1" NCoef="0" IVar="7" Cut="6.0243685729801655e-03" cType="1" res="-1.9758895039558411e-01" rms="3.3808147907257080e-01" purity="1.4182266592979431e-01" nType="0">
          <Node pos="l" depth="2" NCoef="0" IVar="-1" Cut="0.0000000000000000e+00" cType="1" res="-1.4150697737932205e-02" rms="4.5486792922019958e-01" purity="3.0593216419219971e-01" nType="-99"/>
          <Node pos="r" depth="2" NCoef="0" IVar="-1" Cut="0.0000000000000000e+00" cType="1" res="-3.6445342004299164e-02" rms="2.8151619434356689e-01" purity="8.8923446834087372e-02" nType="-99"/>
        </Node>
      </Node>
    </BinaryTree>
    <BinaryTree type="DecisionTree" boostWeight="1.0000000000000000e+00" itree="11">
      <Node pos="s" depth="0" NCoef="0" IVar="2" Cut="7.1428900957107544e-01" cType="1" res="-2.8511600568890572e-02" rms="3.9305198192596436e-01" purity="4.9947395920753479e-01" nType="0">
        <Node pos="l" depth="1" NCoef="0" IVar="12" Cut="-1.8639121949672699e-01" cType="1" res="1.1606343835592270e-01" rms="3.2665055990219116e-01" purity="8.6147260665893555e-01" nType="0">
          <Node pos="l" depth="2" NCoef="0" IVar="-1" Cut="0.0000000000000000e+00" cType="1" res="6.8443924188613892e-02" rms="2.0050410926342010e-01" purity="9.5257842540740967e-01" nType="-99"/>
          <Node pos="r" depth="2" NCoef="0" IVar="-1" Cut="0.0000000000000000e+00" cType="1" res="2.3501258343458176e-02" rms="3.6670401692390442e-01" purity="8.1776255369186401e-01" nType="-99"/>
        </Node>
        <Node pos="r" depth="1" NCoef="0" IVar="16" Cut="2.2770795226097107e-01" cType="1" res="-1.2356528639793396e-01" rms="4.0389633178710938e-01" purity="2.6147091388702393e-01" nType="0">
          <Node pos="l" depth="2" NCoef="0" IVar="-1" Cut="0.0000000000000000e+00" cType="1" res="-8.0528659746050835e-03" rms="4.4612038135528564e-01" purity="3.6939850449562073e-01" nType="-99"/>
          <Node pos="r" depth="2" NCoef="0" IVar="-1" Cut="0.0000000000000000e+00" cType="1" res="-3.3217702060937881e-02" rms="3.3139315247535706e-01" purity="1.4307768642902374e-01" nType="-99"/>
        </Node>
      </Node>
    </BinaryTree>
    <BinaryTree type="DecisionTree" boostWeight="1.0000000000000000e+00" itree="12">
      <Node pos="s" depth="0" NCoef="0" IVar="16" Cut="1.9406954944133759e-01" cType="1" res="-2.6865608990192413e-02" rms="3.8828462362289429e-01" purity="5.0251722335815430e-01" nType="0">
        <Node pos="l" depth="1" NCoef="0" IVar="12" Cut="3.6284163594245911e-01" cType="1" res="5.1883097738027573e-02" rms="3.8281589746475220e-01" purity="6.6031575202941895e-01" nType="0">
          <Node pos="l" depth="2" NCoef="0" IVar="-1" Cut="0.0000000000000000e+00" cType="1" res="3.3802606165409088e-02" rms="3.4638550877571106e-01" purity="8.1614929437637329e-01" nType="-99"/>
          <Node pos="r" depth="2" NCoef="0" IVar="-1" Cut="0.0000000000000000e+00" cType="1" res="-1.7259614542126656e-02" rms="4.1934856772422791e-01" purity="2.9537421464920044e-01" nType="-99"/>
        </Node>
        <Node pos="r" depth="1" NCoef="0" IVar="0" Cut="5.2763462066650391e+00" cType="1" res="-1.8072479963302612e-01" rms="3.5102018713951111e-01" purity="1.9421048462390900e-01" nType="0">
          <Node pos="l" depth="2" NCoef="0" IVar="-1" Cut="0.0000000000000000e+00" cType="1" res="-4.0945142507553101e-02" rms="2.3953188955783844e-01" purity="7.1065485477447510e-02" nType="-99"/>
          <Node pos="r" depth="2" NCoef="0" IVar="-1" Cut="0.0000000000000000e+00" cType="1" res="-2.3374935612082481e-02" rms="3.9692121744155884e-01" purity="2.6846256852149963e-01" nType="-99"/>
        </Node>
      </Node>
    </BinaryTree>
    <BinaryTree type="DecisionTree" boostWeight="1.0000000000000000e+00" itree="13">
      <Node pos="s" depth="0" NCoef="0" IVar="2" Cut="6.1904978752136230e-01" cType="1" res="-3.2063223421573639e-02" rms="3.8299626111984253e-01" purity="4.9435803294181824e-01" nType="0">
        <Node pos="l" depth="1" NCoef="0" IVar="0" Cut="5.2763342857360840e+00" cType="1" res="1.1263965815305710e-01" rms="2.9084903001785278e-01" purity="8.9446580410003662e-01" nType="0">
          <Node pos="l" depth="2" NCoef="0" IVar="-1" Cut="0.0000000000000000e+00" cType="1" res="5.1142834126949310e-03" rms="4.2685499787330627e-01" purity="7.1650952100753784e-01" nType="-99"/>
          <Node pos="r" depth="2" NCoef="0" IVar="-1" Cut="0.0000000000000000e+00" cType="1" res="5.2605159580707550e-02" rms="2.4602624773979187e-01" purity="9.3412083387374878e-01" nType="-99"/>
        </Node>
        <Node pos="r" depth="1" NCoef="0" IVar="0" Cut="5.2745332717895508e+00" cType="1" res="-1.0258515924215317e-01" rms="4.0220579504966736e-01" purity="2.9936271905899048e-01" nType="0">
          <Node pos="l" depth="2" NCoef="0" IVar="-1" Cut="0.0000000000000000e+00" cType="1" res="-3.9462924003601074e-02" rms="2.4805592000484467e-01" purity="7.1467727422714233e-02" nType="-99"/>
          <Node pos="r" depth="2" NCoef="0" IVar="-1" Cut="0.0000000000000000e+00" cType="1" res="-1.0354573838412762e-02" rms="4.3044307827949524e-01" purity="3.7258195877075195e-01" nType="-99"/>
        </Node>
      </Node>
    </BinaryTree>
    <BinaryTree type="DecisionTree" boostWeight="1.0000000000000000e+00" itree="14">
      <Node pos="s" depth="0" NCoef="0" IVar="2" Cut="9.0476500988006592e-01" cType="1" res="-2.9816865921020508e-02" rms="3.7997657060623169e-01" purity="4.9713900685310364e-01" nType="0">
        <Node pos="l" depth="1" NCoef="0" IVar="0" Cut="5.2754130363464355e+00" cType="1" res="4.2072091251611710e-02" rms="3.8486483693122864e-01" purity="6.9632637500762939e-01" nType="0">
          <Node pos="l" depth="2" NCoef="0" IVar="-1" Cut="0.0000000000000000e+00" cType="1" res="-2.1121587604284286e-02" rms="4.1532620787620544e-01" purity="3.6432531476020813e-01" nType="-99"/>
          <Node pos="r" depth="2" NCoef="0" IVar="-1" Cut="0.0000000000000000e+00" cType="1" res="2.2178465500473976e-02" rms="3.6815014481544495e-01" purity="7.7112674713134766e-01" nType="-99"/>
        </Node>
        <Node pos="r" depth="1" NCoef="0" IVar="7" Cut="3.0781088862568140e-03" cType="1" res="-1.5776504576206207e-01" rms="3.3490175008773804e-01" purity="1.4262473583221436e-01" nType="0">
          <Node pos="l" depth="2" NCoef="0" IVar="-1" Cut="0.0000000000000000e+00" cType="1" res="-4.1748494841158390e-03" rms="4.6647879481315613e-01" purity="3.4822246432304382e-01" nType="-99"/>
          <Node pos="r" depth="2" NCoef="0" IVar="-1" Cut="0.0000000000000000e+00" cType="1" res="-3.1281448900699615e-02" rms="2.9410123825073242e-01" purity="1.0101747512817383e-01" nType="-99"/>
        </Node>
      </Node>
    </BinaryTree>
    <BinaryTree type="DecisionTree" boostWeight="1.0000000000000000e+00" itree="15">
      <Node pos="s" depth="0" NCoef="0" IVar="16" Cut="1.5624125301837921e-01" cType="1" res="-2.4181270971894264e-02" rms="3.8235571980476379e-01" purity="5.0609958171844482e-01" nType="0">
        <Node pos="l" depth="1" NCoef="0" IVar="12" Cut="5.3874140977859497e-01" cType="1" res="4.5690398663282394e-02" rms="3.7744066119194031e-01" purity="6.7858487367630005e-01" nType="0">
          <Node pos="l" depth="2" NCoef="0" IVar="-1" Cut="0.0000000000000000e+00" cType="1" res="2.4826806038618088e-02" rms="3.6239451169967651e-01" purity="7.8770786523818970e-01" nType="-99"/>
          <Node pos="r" depth="2" NCoef="0" IVar="-1" Cut="0.0000000000000000e+00" cType="1" res="-2.0044645294547081e-02" rms="3.9582735300064087e-01" purity="2.2384083271026611e-01" nType="-99"/>
        </Node>
        <Node pos="r" depth="1" NCoef="0" IVar="12" Cut="1.8842689692974091e-01" cType="1" res="-1.3474042713642120e-01" rms="3.6353364586830139e-01" purity="2.3317293822765350e-01" nType="0">
          <Node pos="l" depth="2" NCoef="0" IVar="-1" Cut="0.0000000000000000e+00" cType="1" res="-1.1980851180851460e-02" rms="4.2806234955787659e-01" purity="4.1743955016136169e-01" nType="-99"/>
          <Node pos="r" depth="2" NCoef="0" IVar="-1" Cut="0.0000000000000000e+00" cType="1" res="-3.0499136075377464e-02" rms="3.1168049573898315e-01" purity="1.2497327476739883e-01" nType="-99"/>
        </Node>
      </Node>
    </BinaryTree>
    <BinaryTree type="DecisionTree" boostWeight="1.0000000000000000e+00" itree="16">
      <Node pos="s" depth="0" NCoef="0" IVar="16" Cut="1.3533352315425873e-01" cType="1" res="-2.6625381782650948e-02" rms="3.7551242113113403e-01" purity="5.0110512971878052e-01" nType="0">
        <Node pos="l" depth="1" NCoef="0" IVar="12" Cut="3.7063363194465637e-01" cType="1" res="4.6145759522914886e-02" rms="3.6833849549293518e-01" purity="6.9112950563430786e-01" nType="0">
          <Node pos="l" depth="2" NCoef="0" IVar="-1" Cut="0.0000000000000000e+00" cType="1" res="3.0182166025042534e-02" rms="3.3454349637031555e-01" purity="8.3708047866821289e-01" nType="-99"/>
          <Node pos="r" depth="2" NCoef="0" IVar="-1" Cut="0.0000000000000000e+00" cType="1" res="-1.3874369673430920e-02" rms="4.2167228460311890e-01" purity="3.0414631962776184e-01" nType="-99"/>
        </Node>
        <Node pos="r" depth="1" NCoef="0" IVar="12" Cut="1.9221119582653046e-01" cType="1" res="-1.2752781808376312e-01" rms="3.6177992820739746e-01" purity="2.3762266337871552e-01" nType="0">
          <Node pos="l" depth="2" NCoef="0" IVar="-1" Cut="0.0000000000000000e+00" cType="1" res="-1.0611701756715775e-02" rms="4.2266315221786499e-01" purity="4.3315157294273376e-01" nType="-99"/>
          <Node pos="r" depth="2" NCoef="0" IVar="-1" Cut="0.0000000000000000e+00" cType="1" res="-2.9676720499992371e-02" rms="3.1389576196670532e-01" purity="1.2549841403961182e-01" nType="-99"/>
        </Node>
      </Node>
    </BinaryTree>
    <BinaryTree type="DecisionTree" boostWeight="1.0000000000000000e+00" itree="17">
      <Node pos="s" depth="0" NCoef="0" IVar="12" Cut="1.7825810611248016e-01" cType="1" res="-2.9194310307502747e-02" rms="3.7302482128143311e-01" purity="4.9767738580703735e-01" nType="0">
        <Node pos="l" depth="1" NCoef="0" IVar="16" Cut="2.6799997687339783e-01" cType="1" res="5.0441589206457138e-02" rms="3.5206782817840576e-01" purity="7.4799185991287231e-01" nType="0">
          <Node pos="l" depth="2" NCoef="0" IVar="-1" Cut="0.0000000000000000e+00" cType="1" res="2.8330480679869652e-02" rms="3.2807764410972595e-01" purity="8.4587675333023071e-01" nType="-99"/>
          <Node pos="r" depth="2" NCoef="0" IVar="-1" Cut="0.0000000000000000e+00" cType="1" res="-1.7368607223033905e-02" rms="4.1484329104423523e-01" purity="3.0342999100685120e-01" nType="-99"/>
        </Node>
        <Node pos="r" depth="1" NCoef="0" IVar="0" Cut="5.2763524055480957e+00" cType="1" res="-1.0471521317958832e-01" rms="3.7661719322204590e-01" purity="2.6029735803604126e-01" nType="0">
          <Node pos="l" depth="2" NCoef="0" IVar="-1" Cut="0.0000000000000000e+00" cType="1" res="-3.4325528889894485e-02" rms="2.7412489056587219e-01" purity="1.0354170948266983e-01" nType="-99"/>
          <Node pos="r" depth="2" NCoef="0" IVar="-1" Cut="0.0000000000000000e+00" cType="1" res="-1.0525673627853394e-02" rms="4.1609853506088257e-01" purity="3.4977626800537109e-01" nType="-99"/>
        </Node>
      </Node>
    </BinaryTree>
    <BinaryTree type="DecisionTree" boostWeight="1.0000000000000000e+00" itree="18">
      <Node pos="s" depth="0" NCoef="0" IVar="16" Cut="1.3486960530281067e-01" cType="1" res="-2.5007808580994606e-02" rms="3.7252300977706909e-01" purity="4.9970531463623047e-01" nType="0">
        <Node pos="l" depth="1" NCoef="0" IVar="0" Cut="5.2753615379333496e+00" cType="1" res="3.5989865660667419e-02" rms="3.6763083934783936e-01" purity="6.9085103273391724e-01" nType="0">
          <Node pos="l" depth="2" NCoef="0" IVar="-1" Cut="0.0000000000000000e+00" cType="1" res="-2.0452879369258881e-02" rms="3.9303368330001831e-01" purity="3.5013845562934875e-01" nType="-99"/>
          <Node pos="r" depth="2" NCoef="0" IVar="-1" Cut="0.0000000000000000e+00" cType="1" res="2.0723737776279449e-02" rms="3.5425543785095215e-01" purity="7.6481872797012329e-01" nType="-99"/>
        </Node>
        <Node pos="r" depth="1" NCoef="0" IVar="12" Cut="2.2027714550495148e-01" cType="1" res="-1.0740760713815689e-01" rms="3.6311006546020508e-01" purity="2.4149279296398163e-01" nType="0">
          <Node pos="l" depth="2" NCoef="0" IVar="-1" Cut="0.0000000000000000e+00" cType="1" res="-8.1530148163437843e-03" rms="4.2736315727233887e-01" purity="4.3591555953025818e-01" nType="-99"/>
          <Node pos="r" depth="2" NCoef="0" IVar="-1" Cut="0.0000000000000000e+00" cType="1" res="-2.7270270511507988e-02" rms="3.1002014875411987e-01" purity="1.2175662070512772e-01" nType="-99"/>
        </Node>
      </Node>
    </BinaryTree>
    <BinaryTree type="DecisionTree" boostWeight="1.0000000000000000e+00" itree="19">
      <Node pos="s" depth="0" NCoef="0" IVar="16" Cut="1.9406954944133759e-01" cType="1" res="-2.2333789616823196e-02" rms="3.6625337600708008e-01" purity="5.0229305028915405e-01" nType="0">
        <Node pos="l" depth="1" NCoef="0" IVar="12" Cut="4.4362789392471313e-01" cType="1" res="2.9361998662352562e-02" rms="3.6737182736396790e-01" purity="6.6144299507141113e-01" nType="0">
          <Node pos="l" depth="2" NCoef="0" IVar="-1" Cut="0.0000000000000000e+00" cType="1" res="2.2063452750444412e-02" rms="3.4900400042533875e-01" purity="8.0072486400604248e-01" nType="-99"/>
          <Node pos="r" depth="2" NCoef="0" IVar="-1" Cut="0.0000000000000000e+00" cType="1" res="-1.6249010339379311e-02" rms="3.9395889639854431e-01" purity="2.4891696870326996e-01" nType="-99"/>
        </Node>
        <Node pos="r" depth="1" NCoef="0" IVar="16" Cut="3.5921877622604370e-01" cType="1" res="-1.2085117399692535e-01" rms="3.4318983554840088e-01" purity="1.9899879395961761e-01" nType="0">
          <Node pos="l" depth="2" NCoef="0" IVar="-1" Cut="0.0000000000000000e+00" cType="1" res="-1.2573120184242725e-02" rms="3.9457407593727112e-01" purity="3.0949717760086060e-01" nType="-99"/>
          <Node pos="r" depth="2" NCoef="0" IVar="-1" Cut="0.0000000000000000e+00" cType="1" res="-3.0026609078049660e-02" rms="2.9255521297454834e-01" purity="1.1731269955635071e-01" nType="-99"/>
        </Node>
      </Node>
    </BinaryTree>
    <BinaryTree type="DecisionTree" boostWeight="1.0000000000000000e+00" itree="20">
      <Node pos="s" depth="0" NCoef="0" IVar="12" Cut="2.4049994349479675e-01" cType="1" res="-2.2288586944341660e-02" rms="3.6676967144012451e-01" purity="5.0364738702774048e-01" nType="0">
        <Node pos="l" depth="1" NCoef="0" IVar="16" Cut="3.6819395422935486e-01" cType="1" res="3.8140218704938889e-02" rms="3.5299274325370789e-01" purity="7.2709548473358154e-01" nType="0">
          <Node pos="l" depth="2" NCoef="0" IVar="-1" Cut="0.0000000000000000e+00" cType="1" res="2.1096330136060715e-02" rms="3.4242787957191467e-01" purity="8.0693495273590088e-01" nType="-99"/>
          <Node pos="r" depth="2" NCoef="0" IVar="-1" Cut="0.0000000000000000e+00" cType="1" res="-2.3948868736624718e-02" rms="3.7387368083000183e-01" purity="2.0082978904247284e-01" nType="-99"/>
        </Node>
        <Node pos="r" depth="1" NCoef="0" IVar="0" Cut="5.2745175361633301e+00" cType="1" res="-9.4146825373172760e-02" rms="3.6987257003784180e-01" purity="2.3793661594390869e-01" nType="0">
          <Node pos="l" depth="2" NCoef="0" IVar="-1" Cut="0.0000000000000000e+00" cType="1" res="-3.6070659756660461e-02" rms="2.1593184769153595e-01" purity="5.1720838993787766e-02" nType="-99"/>
          <Node pos="r" depth="2" NCoef="0" IVar="-1" Cut="0.0000000000000000e+00" cType="1" res="-1.2072443030774593e-02" rms="4.0401810407638550e-01" purity="3.0063632130622864e-01" nType="-99"/>
        </Node>
      </Node>
    </BinaryTree>
    <BinaryTree type="DecisionTree" boostWeight="1.0000000000000000e+00" itree="21">
      <Node pos="s" depth="0" NCoef="0" IVar="16" Cut="8.0281697213649750e-02" cType="1" res="-2.2904388606548309e-02" rms="3.6463171243667603e-01" purity="4.9606683850288391e-01" nType="0">
        <Node pos="l" depth="1" NCoef="0" IVar="1" Cut="7.1416330337524414e-01" cType="1" res="4.1669756174087524e-02" rms="3.5339206457138062e-01" purity="7.2107976675033569e-01" nType="0">
          <Node pos="l" depth="2" NCoef="0" IVar="-1" Cut="0.0000000000000000e+00" cType="1" res="2.1970130503177643e-02" rms="3.3589178323745728e-01" purity="7.6169055700302124e-01" nType="-99"/>
          <Node pos="r" depth="2" NCoef="0" IVar="-1" Cut="0.0000000000000000e+00" cType="1" res="-2.3144837468862534e-02" rms="4.0058040618896484e-01" purity="5.2600741386413574e-01" nType="-99"/>
        </Node>
        <Node pos="r" depth="1" NCoef="0" IVar="0" Cut="5.2763462066650391e+00" cType="1" res="-8.4081456065177917e-02" rms="3.6456680297851562e-01" purity="2.8289121389389038e-01" nType="0">
          <Node pos="l" depth="2" NCoef="0" IVar="-1" Cut="0.0000000000000000e+00" cType="1" res="-3.0029997229576111e-02" rms="2.7617618441581726e-01" purity="1.2249036133289337e-01" nType="-99"/>
          <Node pos="r" depth="2" NCoef="0" IVar="-1" Cut="0.0000000000000000e+00" cType="1" res="-9.5312120392918587e-03" rms="4.0096724033355713e-01" purity="3.7306749820709229e-01" nType="-99"/>
        </Node>
      </Node>
    </BinaryTree>
    <BinaryTree type="DecisionTree" boostWeight="1.0000000000000000e+00" itree="22">
      <Node pos="s" depth="0" NCoef="0" IVar="0" Cut="5.2745022773742676e+00" cType="1" res="-2.3785401135683060e-02" rms="3.6689162254333496e-01" purity="4.9885106086730957e-01" nType="0">
        <Node pos="l" depth="1" NCoef="0" IVar="12" Cut="-6.2571167945861816e-03" cType="1" res="-1.5318664908409119e-01" rms="3.0346086621284485e-01" purity="1.5591189265251160e-01" nType="0">
          <Node pos="l" depth="2" NCoef="0" IVar="-1" Cut="0.0000000000000000e+00" cType="1" res="-9.3066683039069176e-03" rms="4.3322211503982544e-01" purity="4.9720761179924011e-01" nType="-99"/>
          <Node pos="r" depth="2" NCoef="0" IVar="-1" Cut="0.0000000000000000e+00" cType="1" res="-3.3871330320835114e-02" rms="2.6724690198898315e-01" purity="9.1315634548664093e-02" nType="-99"/>
        </Node>
        <Node pos="r" depth="1" NCoef="0" IVar="0" Cut="5.2841057777404785e+00" cType="1" res="5.8943121694028378e-03" rms="3.7368527054786682e-01" purity="5.7750827074050903e-01" nType="0">
          <Node pos="l" depth="2" NCoef="0" IVar="-1" Cut="0.0000000000000000e+00" cType="1" res="7.5931507162749767e-03" rms="3.6952713131904602e-01" purity="6.1159467697143555e-01" nType="-99"/>
          <Node pos="r" depth="2" NCoef="0" IVar="-1" Cut="0.0000000000000000e+00" cType="1" res="-3.6272194236516953e-02" rms="3.5508581995964050e-01" purity="2.9645696282386780e-01" nType="-99"/>
        </Node>
      </Node>
    </BinaryTree>
    <BinaryTree type="DecisionTree" boostWeight="1.0000000000000000e+00" itree="23">
      <Node pos="s" depth="0" NCoef="0" IVar="12" Cut="-3.8102705031633377e-02" cType="1" res="-2.3223530501127243e-02" rms="3.6269471049308777e-01" purity="4.9709698557853699e-01" nType="0">
        <Node pos="l" depth="1" NCoef="0" IVar="10" Cut="1.2287745475769043e+00" cType="1" res="8.1856302917003632e-02" rms="2.7243006229400635e-01" purity="8.7651425600051880e-01" nType="0">
          <Node pos="l" depth="2" NCoef="0" IVar="-1" Cut="0.0000000000000000e+00" cType="1" res="4.7862404026091099e-03" rms="3.5460859537124634e-01" purity="7.3712676763534546e-01" nType="-99"/>
          <Node pos="r" depth="2" NCoef="0" IVar="-1" Cut="0.0000000000000000e+00" cType="1" res="4.3182808905839920e-02" rms="2.4458582699298859e-01" purity="9.1162210702896118e-01" nType="-99"/>
        </Node>
        <Node pos="r" depth="1" NCoef="0" IVar="0" Cut="5.2763452529907227e+00" cType="1" res="-5.9814412146806717e-02" rms="3.8252687454223633e-01" purity="3.6497640609741211e-01" nType="0">
          <Node pos="l" depth="2" NCoef="0" IVar="-1" Cut="0.0000000000000000e+00" cType="1" res="-2.7949545532464981e-02" rms="3.1268957257270813e-01" purity="1.6597828269004822e-01" nType="-99"/>
          <Node pos="r" depth="2" NCoef="0" IVar="-1" Cut="0.0000000000000000e+00" cType="1" res="-4.6398793347179890e-03" rms="4.0795642137527466e-01" purity="4.6580609679222107e-01" nType="-99"/>
        </Node>
      </Node>
    </BinaryTree>
    <BinaryTree type="DecisionTree" boostWeight="1.0000000000000000e+00" itree="24">
      <Node pos="s" depth="0" NCoef="0" IVar="16" Cut="3.1034892797470093e-01" cType="1" res="-2.2900670766830444e-02" rms="3.6232247948646545e-01" purity="4.9681288003921509e-01" nType="0">
        <Node pos="l" depth="1" NCoef="0" IVar="1" Cut="8.5709655284881592e-01" cType="1" res="7.8133698552846909e-03" rms="3.7243759632110596e-01" purity="6.0773146152496338e-01" nType="0">
          <Node pos="l" depth="2" NCoef="0" IVar="-1" Cut="0.0000000000000000e+00" cType="1" res="7.0765493437647820e-03" rms="3.6771699786186218e-01" purity="6.3562935590744019e-01" nType="-99"/>
          <Node pos="r" depth="2" NCoef="0" IVar="-1" Cut="0.0000000000000000e+00" cType="1" res="-3.9574854075908661e-02" rms="3.6513933539390564e-01" purity="2.9262748360633850e-01" nType="-99"/>
        </Node>
        <Node pos="r" depth="1" NCoef="0" IVar="11" Cut="7.7991358935832977e-02" cType="1" res="-1.2335702776908875e-01" rms="3.0625525116920471e-01" purity="1.3403186202049255e-01" nType="0">
          <Node pos="l" depth="2" NCoef="0" IVar="-1" Cut="0.0000000000000000e+00" cType="1" res="-2.8301410377025604e-02" rms="2.8809556365013123e-01" purity="1.1499096453189850e-01" nType="-99"/>
          <Node pos="r" depth="2" NCoef="0" IVar="-1" Cut="0.0000000000000000e+00" cType="1" res="-1.0961628518998623e-02" rms="3.5874304175376892e-01" purity="2.0706544816493988e-01" nType="-99"/>
        </Node>
      </Node>
    </BinaryTree>
    <BinaryTree type="DecisionTree" boostWeight="1.0000000000000000e+00" itree="25">
      <Node pos="s" depth="0" NCoef="0" IVar="12" Cut="3.6284163594245911e-01" cType="1" res="-2.0426629111170769e-02" rms="3.6163622140884399e-01" purity="4.9557927250862122e-01" nType="0">
        <Node pos="l" depth="1" NCoef="0" IVar="1" Cut="8.5686749219894409e-01" cType="1" res="2.0731233060359955e-02" rms="3.6134350299835205e-01" purity="6.7074733972549438e-01" nType="0">
          <Node pos="l" depth="2" NCoef="0" IVar="-1" Cut="0.0000000000000000e+00" cType="1" res="1.0810157284140587e-02" rms="3.5498809814453125e-01" purity="6.9580626487731934e-01" nType="-99"/>
          <Node pos="r" depth="2" NCoef="0" IVar="-1" Cut="0.0000000000000000e+00" cType="1" res="-3.5558503121137619e-02" rms="3.8476639986038208e-01" purity="3.6646160483360291e-01" nType="-99"/>
        </Node>
        <Node pos="r" depth="1" NCoef="0" IVar="11" Cut="6.7533358931541443e-02" cType="1" res="-9.1981261968612671e-02" rms="3.5083267092704773e-01" purity="1.9104245305061340e-01" nType="0">
          <Node pos="l" depth="2" NCoef="0" IVar="-1" Cut="0.0000000000000000e+00" cType="1" res="-2.4030139669775963e-02" rms="3.2335665822029114e-01" purity="1.5363548696041107e-01" nType="-99"/>
          <Node pos="r" depth="2" NCoef="0" IVar="-1" Cut="0.0000000000000000e+00" cType="1" res="-1.4876538189128041e-03" rms="4.0760049223899841e-01" purity="2.9761394858360291e-01" nType="-99"/>
        </Node>
      </Node>
    </BinaryTree>
    <BinaryTree type="DecisionTree" boostWeight="1.0000000000000000e+00" itree="26">
      <Node pos="s" depth="0" NCoef="0" IVar="1" Cut="6.1888784170150757e-01" cType="1" res="-1.8015066161751747e-02" rms="3.6068937182426453e-01" purity="4.9869063496589661e-01" nType="0">
        <Node pos="l" depth="1" NCoef="0" IVar="0" Cut="5.2736186981201172e+00" cType="1" res="1.6357176005840302e-02" rms="3.5882404446601868e-01" purity="5.5725413560867310e-01" nType="0">
          <Node pos="l" depth="2" NCoef="0" IVar="-1" Cut="0.0000000000000000e+00" cType="1" res="-2.8071952983736992e-02" rms="2.9203382134437561e-01" purity="1.5049995481967926e-01" nType="-99"/>
          <Node pos="r" depth="2" NCoef="0" IVar="-1" Cut="0.0000000000000000e+00" cType="1" res="1.0896906256675720e-02" rms="3.6245951056480408e-01" purity="6.1943620443344116e-01" nType="-99"/>
        </Node>
        <Node pos="r" depth="1" NCoef="0" IVar="12" Cut="2.5891384109854698e-02" cType="1" res="-9.9648237228393555e-02" rms="3.5187277197837830e-01" purity="3.5960379242897034e-01" nType="0">
          <Node pos="l" depth="2" NCoef="0" IVar="-1" Cut="0.0000000000000000e+00" cType="1" res="-3.6050260532647371e-03" rms="3.4963625669479370e-01" purity="7.3027437925338745e-01" nType="-99"/>
          <Node pos="r" depth="2" NCoef="0" IVar="-1" Cut="0.0000000000000000e+00" cType="1" res="-2.7092875912785530e-02" rms="3.4687522053718567e-01" purity="2.1988618373870850e-01" nType="-99"/>
        </Node>
      </Node>
    </BinaryTree>
    <BinaryTree type="DecisionTree" boostWeight="1.0000000000000000e+00" itree="27">
      <Node pos="s" depth="0" NCoef="0" IVar="16" Cut="2.3674346506595612e-01" cType="1" res="-1.4343058690428734e-02" rms="3.5854351520538330e-01" purity="5.0223988294601440e-01" nType="0">
        <Node pos="l" depth="1" NCoef="0" IVar="0" Cut="5.2745022773742676e+00" cType="1" res="1.9561968743801117e-02" rms="3.6578297615051270e-01" purity="6.4033007621765137e-01" nType="0">
          <Node pos="l" depth="2" NCoef="0" IVar="-1" Cut="0.0000000000000000e+00" cType="1" res="-2.0711937919259071e-02" rms="3.5370302200317383e-01" purity="2.4879908561706543e-01" nType="-99"/>
          <Node pos="r" depth="2" NCoef="0" IVar="-1" Cut="0.0000000000000000e+00" cType="1" res="1.3077160343527794e-02" rms="3.6340162158012390e-01" purity="7.1584111452102661e-01" nType="-99"/>
        </Node>
        <Node pos="r" depth="1" NCoef="0" IVar="17" Cut="7.7050685882568359e-02" cType="1" res="-9.4813339412212372e-02" rms="3.2696196436882019e-01" purity="1.7449612915515900e-01" nType="0">
          <Node pos="l" depth="2" NCoef="0" IVar="-1" Cut="0.0000000000000000e+00" cType="1" res="-1.1352786794304848e-02" rms="3.7013101577758789e-01" purity="2.4466861784458160e-01" nType="-99"/>
          <Node pos="r" depth="2" NCoef="0" IVar="-1" Cut="0.0000000000000000e+00" cType="1" res="-2.7128893882036209e-02" rms="2.7914160490036011e-01" purity="1.1331271380186081e-01" nType="-99"/>
        </Node>
      </Node>
    </BinaryTree>
    <BinaryTree type="DecisionTree" boostWeight="1.0000000000000000e+00" itree="28">
      <Node pos="s" depth="0" NCoef="0" IVar="16" Cut="8.0184474587440491e-02" cType="1" res="-2.1589847281575203e-02" rms="3.5547754168510437e-01" purity="4.9635678529739380e-01" nType="0">
        <Node pos="l" depth="1" NCoef="0" IVar="12" Cut="7.0078110694885254e-01" cType="1" res="3.0954364687204361e-02" rms="3.4761947393417358e-01" purity="7.2027999162673950e-01" nType="0">
          <Node pos="l" depth="2" NCoef="0" IVar="-1" Cut="0.0000000000000000e+00" cType="1" res="1.6690665856003761e-02" rms="3.4195747971534729e-01" purity="7.8934341669082642e-01" nType="-99"/>
          <Node pos="r" depth="2" NCoef="0" IVar="-1" Cut="0.0000000000000000e+00" cType="1" res="-2.0461333915591240e-02" rms="3.5983863472938538e-01" purity="1.8035008013248444e-01" nType="-99"/>
        </Node>
        <Node pos="r" depth="1" NCoef="0" IVar="0" Cut="5.2835230827331543e+00" cType="1" res="-7.2631224989891052e-02" rms="3.5558980703353882e-01" purity="2.7883803844451904e-01" nType="0">
          <Node pos="l" depth="2" NCoef="0" IVar="-1" Cut="0.0000000000000000e+00" cType="1" res="-1.2548650614917278e-02" rms="3.5869804024696350e-01" purity="2.9550746083259583e-01" nType="-99"/>
          <Node pos="r" depth="2" NCoef="0" IVar="-1" Cut="0.0000000000000000e+00" cType="1" res="-3.4556467086076736e-02" rms="3.1434226036071777e-01" purity="1.6903568804264069e-01" nType="-99"/>
        </Node>
      </Node>
    </BinaryTree>
    <BinaryTree type="DecisionTree" boostWeight="1.0000000000000000e+00" itree="29">
      <Node pos="s" depth="0" NCoef="0" IVar="0" Cut="5.2763462066650391e+00" cType="1" res="-1.2466763146221638e-02" rms="3.5792410373687744e-01" purity="5.0191634893417358e-01" nType="0">
        <Node pos="l" depth="1" NCoef="0" IVar="12" Cut="-1.4712898433208466e-01" cType="1" res="-8.6677871644496918e-02" rms="3.3047559857368469e-01" purity="2.5946143269538879e-01" nType="0">
          <Node pos="l" depth="2" NCoef="0" IVar="-1" Cut="0.0000000000000000e+00" cType="1" res="1.5915893018245697e-02" rms="3.4618607163429260e-01" purity="7.7293336391448975e-01" nType="-99"/>
          <Node pos="r" depth="2" NCoef="0" IVar="-1" Cut="0.0000000000000000e+00" cType="1" res="-2.2804347798228264e-02" rms="3.2502144575119019e-01" purity="2.0217046141624451e-01" nType="-99"/>
        </Node>
        <Node pos="r" depth="1" NCoef="0" IVar="0" Cut="5.2848062515258789e+00" cType="1" res="1.8348392099142075e-02" rms="3.6430668830871582e-01" purity="6.0259252786636353e-01" nType="0">
          <Node pos="l" depth="2" NCoef="0" IVar="-1" Cut="0.0000000000000000e+00" cType="1" res="1.0211489163339138e-02" rms="3.6328363418579102e-01" purity="6.3489425182342529e-01" nType="-99"/>
          <Node pos="r" depth="2" NCoef="0" IVar="-1" Cut="0.0000000000000000e+00" cType="1" res="-3.4514684230089188e-02" rms="3.2204416394233704e-01" purity="2.6832011342048645e-01" nType="-99"/>
        </Node>
      </Node>
    </BinaryTree>
    <BinaryTree type="DecisionTree" boostWeight="1.0000000000000000e+00" itree="30">
      <Node pos="s" depth="0" NCoef="0" IVar="12" Cut="2.5056251883506775e-01" cType="1" res="-1.5895564109086990e-02" rms="3.5615545511245728e-01" purity="5.0198721885681152e-01" nType="0">
        <Node pos="l" depth="1" NCoef="0" IVar="1" Cut="6.6640460491180420e-01" cType="1" res="2.7252566069364548e-02" rms="3.4691524505615234e-01" purity="7.2247135639190674e-01" nType="0">
          <Node pos="l" depth="2" NCoef="0" IVar="-1" Cut="0.0000000000000000e+00" cType="1" res="1.7892247065901756e-02" rms="3.3352121710777283e-01" purity="7.6951968669891357e-01" nType="-99"/>
          <Node pos="r" depth="2" NCoef="0" IVar="-1" Cut="0.0000000000000000e+00" cType="1" res="-1.6253177076578140e-02" rms="3.7828147411346436e-01" purity="5.5401021242141724e-01" nType="-99"/>
        </Node>
        <Node pos="r" depth="1" NCoef="0" IVar="11" Cut="1.6712136566638947e-01" cType="1" res="-6.8597391247749329e-02" rms="3.6018079519271851e-01" purity="2.3268432915210724e-01" nType="0">
          <Node pos="l" depth="2" NCoef="0" IVar="-1" Cut="0.0000000000000000e+00" cType="1" res="-1.8359003588557243e-02" rms="3.4572368860244751e-01" purity="2.0748929679393768e-01" nType="-99"/>
          <Node pos="r" depth="2" NCoef="0" IVar="-1" Cut="0.0000000000000000e+00" cType="1" res="8.8091129437088966e-03" rms="4.1910529136657715e-01" purity="3.7998041510581970e-01" nType="-99"/>
        </Node>
      </Node>
    </BinaryTree>
    <BinaryTree type="DecisionTree" boostWeight="1.0000000000000000e+00" itree="31">
      <Node pos="s" depth="0" NCoef="0" IVar="16" Cut="3.0818596482276917e-01" cType="1" res="-1.7556916922330856e-02" rms="3.5318070650100708e-01" purity="4.9547833204269409e-01" nType="0">
        <Node pos="l" depth="1" NCoef="0" IVar="0" Cut="5.2754068374633789e+00" cType="1" res="7.7459239400923252e-03" rms="3.6469066143035889e-01" purity="6.0911452770233154e-01" nType="0">
          <Node pos="l" depth="2" NCoef="0" IVar="-1" Cut="0.0000000000000000e+00" cType="1" res="-1.8672879785299301e-02" rms="3.5212075710296631e-01" purity="2.7714762091636658e-01" nType="-99"/>
          <Node pos="r" depth="2" NCoef="0" IVar="-1" Cut="0.0000000000000000e+00" cType="1" res="9.8674912005662918e-03" rms="3.6389067769050598e-01" purity="6.9683539867401123e-01" nType="-99"/>
        </Node>
        <Node pos="r" depth="1" NCoef="0" IVar="11" Cut="9.4357386231422424e-02" cType="1" res="-9.9322341382503510e-02" rms="2.9880023002624512e-01" purity="1.2826591730117798e-01" nType="0">
          <Node pos="l" depth="2" NCoef="0" IVar="-1" Cut="0.0000000000000000e+00" cType="1" res="-2.5225302204489708e-02" rms="2.8039264678955078e-01" purity="1.1049457639455795e-01" nType="-99"/>
          <Node pos="r" depth="2" NCoef="0" IVar="-1" Cut="0.0000000000000000e+00" cType="1" res="-8.0663207918405533e-03" rms="3.6483815312385559e-01" purity="2.0947507023811340e-01" nType="-99"/>
        </Node>
      </Node>
    </BinaryTree>
    <BinaryTree type="DecisionTree" boostWeight="1.0000000000000000e+00" itree="32">
      <Node pos="s" depth="0" NCoef="0" IVar="12" Cut="7.4595242738723755e-02" cType="1" res="-2.0560219883918762e-02" rms="3.5435882210731506e-01" purity="4.9103283882141113e-01" nType="0">
        <Node pos="l" depth="1" NCoef="0" IVar="16" Cut="3.3311286568641663e-01" cType="1" res="4.0262442082166672e-02" rms="3.1596842408180237e-01" purity="8.0110085010528564e-01" nType="0">
          <Node pos="l" depth="2" NCoef="0" IVar="-1" Cut="0.0000000000000000e+00" cType="1" res="2.4507965892553329e-02" rms="2.9687896370887756e-01" purity="8.7419992685317993e-01" nType="-99"/>
          <Node pos="r" depth="2" NCoef="0" IVar="-1" Cut="0.0000000000000000e+00" cType="1" res="-1.4287083409726620e-02" rms="4.1092246770858765e-01" purity="2.7940517663955688e-01" nType="-99"/>
        </Node>
        <Node pos="r" depth="1" NCoef="0" IVar="18" Cut="9.2224800586700439e-01" cType="1" res="-5.7020388543605804e-02" rms="3.7074190378189087e-01" purity="3.0516248941421509e-01" nType="0">
          <Node pos="l" depth="2" NCoef="0" IVar="-1" Cut="0.0000000000000000e+00" cType="1" res="-1.6594344750046730e-02" rms="3.5959145426750183e-01" purity="2.7708554267883301e-01" nType="-99"/>
          <Node pos="r" depth="2" NCoef="0" IVar="-1" Cut="0.0000000000000000e+00" cType="1" res="1.6040604561567307e-02" rms="4.1696316003799438e-01" purity="4.9055206775665283e-01" nType="-99"/>
        </Node>
      </Node>
    </BinaryTree>
    <BinaryTree type="DecisionTree" boostWeight="1.0000000000000000e+00" itree="33">
      <Node pos="s" depth="0" NCoef="0" IVar="1" Cut="7.6178646087646484e-01" cType="1" res="-1.1552654206752777e-02" rms="3.5083758831024170e-01" purity="5.0259059667587280e-01" nType="0">
        <Node pos="l" depth="1" NCoef="0" IVar="2" Cut="9.0476489067077637e-01" cType="1" res="7.5455252081155777e-03" rms="3.4997543692588806e-01" purity="5.4326254129409790e-01" nType="0">
          <Node pos="l" depth="2" NCoef="0" IVar="-1" Cut="0.0000000000000000e+00" cType="1" res="1.2009594589471817e-02" rms="3.5126847028732300e-01" purity="7.3193526268005371e-01" nType="-99"/>
          <Node pos="r" depth="2" NCoef="0" IVar="-1" Cut="0.0000000000000000e+00" cType="1" res="-1.1763564310967922e-02" rms="3.3947691321372986e-01" purity="1.6634373366832733e-01" nType="-99"/>
        </Node>
        <Node pos="r" depth="1" NCoef="0" IVar="1" Cut="8.9783048629760742e-01" cType="1" res="-1.1176420748233795e-01" rms="3.3808460831642151e-01" purity="2.8917774558067322e-01" nType="0">
          <Node pos="l" depth="2" NCoef="0" IVar="-1" Cut="0.0000000000000000e+00" cType="1" res="-1.7598481848835945e-02" rms="3.4678110480308533e-01" purity="3.5498955845832825e-01" nType="-99"/>
          <Node pos="r" depth="2" NCoef="0" IVar="-1" Cut="0.0000000000000000e+00" cType="1" res="-3.7741441279649734e-02" rms="3.1449785828590393e-01" purity="1.8554927408695221e-01" nType="-99"/>
        </Node>
      </Node>
    </BinaryTree>
    <BinaryTree type="DecisionTree" boostWeight="1.0000000000000000e+00" itree="34">
      <Node pos="s" depth="0" NCoef="0" IVar="12" Cut="-3.8102705031633377e-02" cType="1" res="-1.5085887163877487e-02" rms="3.4985059499740601e-01" purity="4.9819579720497131e-01" nType="0">
        <Node pos="l" depth="1" NCoef="0" IVar="2" Cut="4.7556647658348083e-01" cType="1" res="5.6021358817815781e-02" rms="2.7061864733695984e-01" purity="8.7617141008377075e-01" nType="0">
          <Node pos="l" depth="2" NCoef="0" IVar="-1" Cut="0.0000000000000000e+00" cType="1" res="4.7294005751609802e-02" rms="1.9857482612133026e-01" purity="9.5535635948181152e-01" nType="-99"/>
          <Node pos="r" depth="2" NCoef="0" IVar="-1" Cut="0.0000000000000000e+00" cType="1" res="3.2476561609655619e-03" rms="3.7877717614173889e-01" purity="7.0454406738281250e-01" nType="-99"/>
        </Node>
        <Node pos="r" depth="1" NCoef="0" IVar="1" Cut="5.2373111248016357e-01" cType="1" res="-4.0033940225839615e-02" rms="3.7046891450881958e-01" purity="3.6558264493942261e-01" nType="0">
          <Node pos="l" depth="2" NCoef="0" IVar="-1" Cut="0.0000000000000000e+00" cType="1" res="-9.3803257914260030e-04" rms="3.8159847259521484e-01" purity="4.3432825803756714e-01" nType="-99"/>
          <Node pos="r" depth="2" NCoef="0" IVar="-1" Cut="0.0000000000000000e+00" cType="1" res="-2.0876545459032059e-02" rms="3.4734785556793213e-01" purity="2.6689982414245605e-01" nType="-99"/>
        </Node>
      </Node>
    </BinaryTree>
    <BinaryTree type="DecisionTree" boostWeight="1.0000000000000000e+00" itree="35">
      <Node pos="s" depth="0" NCoef="0" IVar="16" Cut="1.6796508431434631e-01" cType="1" res="-1.3555972836911678e-02" rms="3.5127198696136475e-01" purity="4.9670681357383728e-01" nType="0">
        <Node pos="l" depth="1" NCoef="0" IVar="0" Cut="5.2736182212829590e+00" cType="1" res="1.7673272639513016e-02" rms="3.5319548845291138e-01" purity="6.7153012752532959e-01" nType="0">
          <Node pos="l" depth="2" NCoef="0" IVar="-1" Cut="0.0000000000000000e+00" cType="1" res="-2.2043656557798386e-02" rms="3.4396249055862427e-01" purity="2.1866264939308167e-01" nType="-99"/>
          <Node pos="r" depth="2" NCoef="0" IVar="-1" Cut="0.0000000000000000e+00" cType="1" res="1.0805698111653328e-02" rms="3.5134810209274292e-01" purity="7.2690552473068237e-01" nType="-99"/>
        </Node>
        <Node pos="r" depth="1" NCoef="0" IVar="14" Cut="3.9273101836442947e-02" cType="1" res="-6.4666792750358582e-02" rms="3.4200268983840942e-01" purity="2.1058520674705505e-01" nType="0">
          <Node pos="l" depth="2" NCoef="0" IVar="-1" Cut="0.0000000000000000e+00" cType="1" res="-7.2673992253839970e-03" rms="3.8557770848274231e-01" purity="2.8302100300788879e-01" nType="-99"/>
          <Node pos="r" depth="2" NCoef="0" IVar="-1" Cut="0.0000000000000000e+00" cType="1" res="-2.2327203303575516e-02" rms="2.9338869452476501e-01" purity="1.4413787424564362e-01" nType="-99"/>
        </Node>
      </Node>
    </BinaryTree>
    <BinaryTree type="DecisionTree" boostWeight="1.0000000000000000e+00" itree="36">
      <Node pos="s" depth="0" NCoef="0" IVar="0" Cut="5.2835979461669922e+00" cType="1" res="-1.3851424679160118e-02" rms="3.5119265317916870e-01" purity="4.9959570169448853e-01" nType="0">
        <Node pos="l" depth="1" NCoef="0" IVar="0" Cut="5.2771244049072266e+00" cType="1" res="-1.6771593072917312e-04" rms="3.4855166077613831e-01" purity="5.1807290315628052e-01" nType="0">
          <Node pos="l" depth="2" NCoef="0" IVar="-1" Cut="0.0000000000000000e+00" cType="1" res="-1.6309259459376335e-02" rms="3.2994985580444336e-01" purity="3.0375432968139648e-01" nType="-99"/>
          <Node pos="r" depth="2" NCoef="0" IVar="-1" Cut="0.0000000000000000e+00" cType="1" res="1.2849723920226097e-02" rms="3.5395526885986328e-01" purity="6.5805882215499878e-01" nType="-99"/>
        </Node>
        <Node pos="r" depth="1" NCoef="0" IVar="0" Cut="5.2856698036193848e+00" cType="1" res="-1.2876535952091217e-01" rms="3.5224708914756775e-01" purity="3.4442636370658875e-01" nType="0">
          <Node pos="l" depth="2" NCoef="0" IVar="-1" Cut="0.0000000000000000e+00" cType="1" res="-2.1954851225018501e-02" rms="3.5861533880233765e-01" purity="4.1674381494522095e-01" nType="-99"/>
          <Node pos="r" depth="2" NCoef="0" IVar="-1" Cut="0.0000000000000000e+00" cType="1" res="-4.3741673231124878e-02" rms="3.2864060997962952e-01" purity="2.1829028427600861e-01" nType="-99"/>
        </Node>
      </Node>
    </BinaryTree>
    <BinaryTree type="DecisionTree" boostWeight="1.0000000000000000e+00" itree="37">
      <Node pos="s" depth="0" NCoef="0" IVar="0" Cut="5.2844061851501465e+00" cType="1" res="-1.0239670984447002e-02" rms="3.5141992568969727e-01" purity="5.0340807437896729e-01" nType="0">
        <Node pos="l" depth="1" NCoef="0" IVar="0" Cut="5.2768602371215820e+00" cType="1" res="1.3568552676588297e-03" rms="3.4958565235137939e-01" purity="5.2290540933609009e-01" nType="0">
          <Node pos="l" depth="2" NCoef="0" IVar="-1" Cut="0.0000000000000000e+00" cType="1" res="-1.5290238894522190e-02" rms="3.2744365930557251e-01" purity="2.9030746221542358e-01" nType="-99"/>
          <Node pos="r" depth="2" NCoef="0" IVar="-1" Cut="0.0000000000000000e+00" cType="1" res="1.0930294170975685e-02" rms="3.5685944557189941e-01" purity="6.5368384122848511e-01" nType="-99"/>
        </Node>
        <Node pos="r" depth="1" NCoef="0" IVar="0" Cut="5.2861213684082031e+00" cType="1" res="-1.4629846811294556e-01" rms="3.4422719478607178e-01" purity="2.7465134859085083e-01" nType="0">
          <Node pos="l" depth="2" NCoef="0" IVar="-1" Cut="0.0000000000000000e+00" cType="1" res="-2.4130010977387428e-02" rms="3.6150878667831421e-01" purity="3.5070490837097168e-01" nType="-99"/>
          <Node pos="r" depth="2" NCoef="0" IVar="-1" Cut="0.0000000000000000e+00" cType="1" res="-4.5044947415590286e-02" rms="3.0763086676597595e-01" purity="1.6949647665023804e-01" nType="-99"/>
        </Node>
      </Node>
    </BinaryTree>
    <BinaryTree type="DecisionTree" boostWeight="1.0000000000000000e+00" itree="38">
      <Node pos="s" depth="0" NCoef="0" IVar="1" Cut="7.6179242134094238e-01" cType="1" res="-1.1302539147436619e-02" rms="3.5151538252830505e-01" purity="5.0053256750106812e-01" nType="0">
        <Node pos="l" depth="1" NCoef="0" IVar="16" Cut="3.9737924933433533e-01" cType="1" res="5.5740294046700001e-03" rms="3.5275620222091675e-01" purity="5.4248934984207153e-01" nType="0">
          <Node pos="l" depth="2" NCoef="0" IVar="-1" Cut="0.0000000000000000e+00" cType="1" res="6.5269721671938896e-03" rms="3.6004781723022461e-01" purity="6.2220954895019531e-01" nType="-99"/>
          <Node pos="r" depth="2" NCoef="0" IVar="-1" Cut="0.0000000000000000e+00" cType="1" res="-1.9010094925761223e-02" rms="2.9754063487052917e-01" purity="1.2327492237091064e-01" nType="-99"/>
        </Node>
        <Node pos="r" depth="1" NCoef="0" IVar="12" Cut="2.6046833023428917e-02" cType="1" res="-9.7588144242763519e-02" rms="3.3195456862449646e-01" purity="2.8601846098899841e-01" nType="0">
          <Node pos="l" depth="2" NCoef="0" IVar="-1" Cut="0.0000000000000000e+00" cType="1" res="-7.8823575749993324e-03" rms="3.6519065499305725e-01" purity="6.8128091096878052e-01" nType="-99"/>
          <Node pos="r" depth="2" NCoef="0" IVar="-1" Cut="0.0000000000000000e+00" cType="1" res="-2.7361063286662102e-02" rms="3.1828701496124268e-01" purity="1.6952510178089142e-01" nType="-99"/>
        </Node>
      </Node>
    </BinaryTree>
    <BinaryTree type="DecisionTree" boostWeight="1.0000000000000000e+00" itree="39">
      <Node pos="s" depth="0" NCoef="0" IVar="1" Cut="7.1424573659896851e-01" cType="1" res="-9.0548396110534668e-03" rms="3.5008752346038818e-01" purity="4.9930149316787720e-01" nType="0">
        <Node pos="l" depth="1" NCoef="0" IVar="0" Cut="5.2853589057922363e+00" cType="1" res="9.4780903309583664e-03" rms="3.5102829337120056e-01" purity="5.4601311683654785e-01" nType="0">
          <Node pos="l" depth="2" NCoef="0" IVar="-1" Cut="0.0000000000000000e+00" cType="1" res="5.2743577398359776e-03" rms="3.5007336735725403e-01" purity="5.6137174367904663e-01" nType="-99"/>
          <Node pos="r" depth="2" NCoef="0" IVar="-1" Cut="0.0000000000000000e+00" cType="1" res="-3.6770630627870560e-02" rms="3.2456275820732117e-01" purity="2.3341397941112518e-01" nType="-99"/>
        </Node>
        <Node pos="r" depth="1" NCoef="0" IVar="2" Cut="4.7646111249923706e-01" cType="1" res="-8.2017906010150909e-02" rms="3.3658382296562195e-01" purity="3.1540054082870483e-01" nType="0">
          <Node pos="l" depth="2" NCoef="0" IVar="-1" Cut="0.0000000000000000e+00" cType="1" res="1.7097593517974019e-03" rms="3.3849242329597473e-01" purity="8.4071004390716553e-01" nType="-99"/>
          <Node pos="r" depth="2" NCoef="0" IVar="-1" Cut="0.0000000000000000e+00" cType="1" res="-2.2872392088174820e-02" rms="3.3351418375968933e-01" purity="2.0916472375392914e-01" nType="-99"/>
        </Node>
      </Node>
    </BinaryTree>
    <BinaryTree type="DecisionTree" boostWeight="1.0000000000000000e+00" itree="40">
      <Node pos="s" depth="0" NCoef="0" IVar="12" Cut="5.3074288368225098e-01" cType="1" res="-9.3919858336448669e-03" rms="3.5048952698707581e-01" purity="5.0135046243667603e-01" nType="0">
        <Node pos="l" depth="1" NCoef="0" IVar="17" Cut="6.5478265285491943e-02" cType="1" res="9.5888245850801468e-03" rms="3.5772812366485596e-01" purity="6.1499059200286865e-01" nType="0">
          <Node pos="l" depth="2" NCoef="0" IVar="-1" Cut="0.0000000000000000e+00" cType="1" res="9.8387477919459343e-03" rms="3.6081495881080627e-01" purity="6.9082480669021606e-01" nType="-99"/>
          <Node pos="r" depth="2" NCoef="0" IVar="-1" Cut="0.0000000000000000e+00" cType="1" res="-1.3900176621973515e-02" rms="3.4159901738166809e-01" purity="3.9905384182929993e-01" nType="-99"/>
        </Node>
        <Node pos="r" depth="1" NCoef="0" IVar="11" Cut="8.5819326341152191e-02" cType="1" res="-6.8322941660881042e-02" rms="3.1989821791648865e-01" purity="1.4852476119995117e-01" nType="0">
          <Node pos="l" depth="2" NCoef="0" IVar="-1" Cut="0.0000000000000000e+00" cType="1" res="-2.0478451624512672e-02" rms="2.9531443119049072e-01" purity="1.2015931308269501e-01" nType="-99"/>
          <Node pos="r" depth="2" NCoef="0" IVar="-1" Cut="0.0000000000000000e+00" cType="1" res="-5.8607768733054399e-04" rms="3.8625580072402954e-01" purity="2.4685356020927429e-01" nType="-99"/>
        </Node>
      </Node>
    </BinaryTree>
    <BinaryTree type="DecisionTree" boostWeight="1.0000000000000000e+00" itree="41">
      <Node pos="s" depth="0" NCoef="0" IVar="11" Cut="7.7228069305419922e-02" cType="1" res="-1.1178883723914623e-02" rms="3.4750247001647949e-01" purity="4.9818304181098938e-01" nType="0">
        <Node pos="l" depth="1" NCoef="0" IVar="2" Cut="4.7619044780731201e-01" cType="1" res="-3.3212974667549133e-02" rms="3.4325623512268066e-01" purity="4.5877283811569214e-01" nType="0">
          <Node pos="l" depth="2" NCoef="0" IVar="-1" Cut="0.0000000000000000e+00" cType="1" res="1.8309995532035828e-02" rms="2.6234135031700134e-01" purity="9.0941375494003296e-01" nType="-99"/>
          <Node pos="r" depth="2" NCoef="0" IVar="-1" Cut="0.0000000000000000e+00" cType="1" res="-1.2773852795362473e-02" rms="3.6187928915023804e-01" purity="3.2294824719429016e-01" nType="-99"/>
        </Node>
        <Node pos="r" depth="1" NCoef="0" IVar="0" Cut="5.2826786041259766e+00" cType="1" res="5.4790083318948746e-02" rms="3.5175859928131104e-01" purity="6.1617523431777954e-01" nType="0">
          <Node pos="l" depth="2" NCoef="0" IVar="-1" Cut="0.0000000000000000e+00" cType="1" res="2.3112645372748375e-02" rms="3.4346935153007507e-01" purity="6.4196902513504028e-01" nType="-99"/>
          <Node pos="r" depth="2" NCoef="0" IVar="-1" Cut="0.0000000000000000e+00" cType="1" res="-1.2874158099293709e-02" rms="3.7704226374626160e-01" purity="4.7622400522232056e-01" nType="-99"/>
        </Node>
      </Node>
    </BinaryTree>
    <BinaryTree type="DecisionTree" boostWeight="1.0000000000000000e+00" itree="42">
      <Node pos="s" depth="0" NCoef="0" IVar="18" Cut="9.2144691944122314e-01" cType="1" res="-1.0182977654039860e-02" rms="3.4964844584465027e-01" purity="4.9774235486984253e-01" nType="0">
        <Node pos="l" depth="1" NCoef="0" IVar="0" Cut="5.2836132049560547e+00" cType="1" res="-2.4554895237088203e-02" rms="3.4831792116165161e-01" purity="4.6720224618911743e-01" nType="0">
          <Node pos="l" depth="2" NCoef="0" IVar="-1" Cut="0.0000000000000000e+00" cType="1" res="-3.7467284128069878e-03" rms="3.4766238927841187e-01" purity="4.8515629768371582e-01" nType="-99"/>
          <Node pos="r" depth="2" NCoef="0" IVar="-1" Cut="0.0000000000000000e+00" cType="1" res="-2.9841424897313118e-02" rms="3.3932897448539734e-01" purity="3.1704267859458923e-01" nType="-99"/>
        </Node>
        <Node pos="r" depth="1" NCoef="0" IVar="15" Cut="6.0605400800704956e-01" cType="1" res="6.5445631742477417e-02" rms="3.4689235687255859e-01" purity="6.5845179557800293e-01" nType="0">
          <Node pos="l" depth="2" NCoef="0" IVar="-1" Cut="0.0000000000000000e+00" cType="1" res="5.2981127053499222e-02" rms="3.0745181441307068e-01" purity="8.1735408306121826e-01" nType="-99"/>
          <Node pos="r" depth="2" NCoef="0" IVar="-1" Cut="0.0000000000000000e+00" cType="1" res="1.0226762853562832e-02" rms="3.5790568590164185e-01" purity="5.8980482816696167e-01" nType="-99"/>
        </Node>
      </Node>
    </BinaryTree>
    <BinaryTree type="DecisionTree" boostWeight="1.0000000000000000e+00" itree="43">
      <Node pos="s" depth="0" NCoef="0" IVar="0" Cut="5.2763557434082031e+00" cType="1" res="-7.0527293719351292e-03" rms="3.4845301508903503e-01" purity="5.0485140085220337e-01" nType="0">
        <Node pos="l" depth="1" NCoef="0" IVar="2" Cut="3.8112378120422363e-01" cType="1" res="-6.5159894526004791e-02" rms="3.2245802879333496e-01" purity="2.5190985202789307e-01" nType="0">
          <Node pos="l" depth="2" NCoef="0" IVar="-1" Cut="0.0000000000000000e+00" cType="1" res="1.2732908129692078e-02" rms="3.5378304123878479e-01" purity="8.0780804157257080e-01" nType="-99"/>
          <Node pos="r" depth="2" NCoef="0" IVar="-1" Cut="0.0000000000000000e+00" cType="1" res="-1.9686568528413773e-02" rms="3.1604275107383728e-01" purity="1.8344135582447052e-01" nType="-99"/>
        </Node>
        <Node pos="r" depth="1" NCoef="0" IVar="0" Cut="5.2830085754394531e+00" cType="1" res="1.6755979508161545e-02" rms="3.5583022236824036e-01" purity="6.0849118232727051e-01" nType="0">
          <Node pos="l" depth="2" NCoef="0" IVar="-1" Cut="0.0000000000000000e+00" cType="1" res="1.2082124128937721e-02" rms="3.5283374786376953e-01" purity="6.6263818740844727e-01" nType="-99"/>
          <Node pos="r" depth="2" NCoef="0" IVar="-1" Cut="0.0000000000000000e+00" cType="1" res="-1.8543083220720291e-02" rms="3.5438799858093262e-01" purity="3.8756933808326721e-01" nType="-99"/>
        </Node>
      </Node>
    </BinaryTree>
    <BinaryTree type="DecisionTree" boostWeight="1.0000000000000000e+00" itree="44">
      <Node pos="s" depth="0" NCoef="0" IVar="12" Cut="5.3074288368225098e-01" cType="1" res="-1.4158750884234905e-02" rms="3.4549069404602051e-01" purity="4.9627879261970520e-01" nType="0">
        <Node pos="l" depth="1" NCoef="0" IVar="15" Cut="1.0295345783233643e+00" cType="1" res="4.1667260229587555e-03" rms="3.5675680637359619e-01" purity="6.1365598440170288e-01" nType="0">
          <Node pos="l" depth="2" NCoef="0" IVar="-1" Cut="0.0000000000000000e+00" cType="1" res="1.7961572855710983e-02" rms="3.4057199954986572e-01" purity="7.6729166507720947e-01" nType="-99"/>
          <Node pos="r" depth="2" NCoef="0" IVar="-1" Cut="0.0000000000000000e+00" cType="1" res="-7.3162945918738842e-03" rms="3.6362156271934509e-01" purity="5.1540046930313110e-01" nType="-99"/>
        </Node>
        <Node pos="r" depth="1" NCoef="0" IVar="11" Cut="1.9981630146503448e-01" cType="1" res="-7.0345468819141388e-02" rms="3.0152934789657593e-01" purity="1.3639494776725769e-01" nType="0">
          <Node pos="l" depth="2" NCoef="0" IVar="-1" Cut="0.0000000000000000e+00" cType="1" res="-2.0815351977944374e-02" rms="2.8228390216827393e-01" purity="1.1367512494325638e-01" nType="-99"/>
          <Node pos="r" depth="2" NCoef="0" IVar="-1" Cut="0.0000000000000000e+00" cType="1" res="1.1040288023650646e-02" rms="3.9919391274452209e-01" purity="3.0583634972572327e-01" nType="-99"/>
        </Node>
      </Node>
    </BinaryTree>
    <BinaryTree type="DecisionTree" boostWeight="1.0000000000000000e+00" itree="45">
      <Node pos="s" depth="0" NCoef="0" IVar="0" Cut="5.2744936943054199e+00" cType="1" res="-1.0013069957494736e-02" rms="3.4880194067955017e-01" purity="4.9810156226158142e-01" nType="0">
        <Node pos="l" depth="1" NCoef="0" IVar="0" Cut="5.2723536491394043e+00" cType="1" res="-8.0247119069099426e-02" rms="2.9118770360946655e-01" purity="1.5430966019630432e-01" nType="0">
          <Node pos="l" depth="2" NCoef="0" IVar="-1" Cut="0.0000000000000000e+00" cType="1" res="-2.8222696855664253e-02" rms="2.5566217303276062e-01" purity="9.4113692641258240e-02" nType="-99"/>
          <Node pos="r" depth="2" NCoef="0" IVar="-1" Cut="0.0000000000000000e+00" cType="1" res="-1.4403599314391613e-02" rms="3.1768712401390076e-01" purity="2.0836375653743744e-01" nType="-99"/>
        </Node>
        <Node pos="r" depth="1" NCoef="0" IVar="1" Cut="6.1894303560256958e-01" cType="1" res="6.0754548758268356e-03" rms="3.5877624154090881e-01" purity="5.7685405015945435e-01" nType="0">
          <Node pos="l" depth="2" NCoef="0" IVar="-1" Cut="0.0000000000000000e+00" cType="1" res="8.8333636522293091e-03" rms="3.5310167074203491e-01" purity="6.3431769609451294e-01" nType="-99"/>
          <Node pos="r" depth="2" NCoef="0" IVar="-1" Cut="0.0000000000000000e+00" cType="1" res="-1.3981782831251621e-02" rms="3.6690670251846313e-01" purity="4.2670792341232300e-01" nType="-99"/>
        </Node>
      </Node>
    </BinaryTree>
    <BinaryTree type="DecisionTree" boostWeight="1.0000000000000000e+00" itree="46">
      <Node pos="s" depth="0" NCoef="0" IVar="11" Cut="1.7898981273174286e-01" cType="1" res="-7.0724259130656719e-03" rms="3.4417387843132019e-01" purity="5.0168114900588989e-01" nType="0">
        <Node pos="l" depth="1" NCoef="0" IVar="12" Cut="2.9719829559326172e-02" cType="1" res="-1.8876932561397552e-02" rms="3.4024631977081299e-01" purity="4.8288512229919434e-01" nType="0">
          <Node pos="l" depth="2" NCoef="0" IVar="-1" Cut="0.0000000000000000e+00" cType="1" res="1.3829652220010757e-02" rms="2.9571938514709473e-01" purity="8.2273066043853760e-01" nType="-99"/>
          <Node pos="r" depth="2" NCoef="0" IVar="-1" Cut="0.0000000000000000e+00" cType="1" res="-1.0929053649306297e-02" rms="3.5805052518844604e-01" purity="3.1086155772209167e-01" nType="-99"/>
        </Node>
        <Node pos="r" depth="1" NCoef="0" IVar="14" Cut="8.6366891860961914e-02" cType="1" res="8.0289959907531738e-02" rms="3.6011970043182373e-01" purity="6.4078634977340698e-01" nType="0">
          <Node pos="l" depth="2" NCoef="0" IVar="-1" Cut="0.0000000000000000e+00" cType="1" res="3.7350974977016449e-02" rms="3.5056501626968384e-01" purity="7.4035680294036865e-01" nType="-99"/>
          <Node pos="r" depth="2" NCoef="0" IVar="-1" Cut="0.0000000000000000e+00" cType="1" res="7.5847073458135128e-03" rms="3.6955323815345764e-01" purity="4.7599753737449646e-01" nType="-99"/>
        </Node>
      </Node>
    </BinaryTree>
    <BinaryTree type="DecisionTree" boostWeight="1.0000000000000000e+00" itree="47">
      <Node pos="s" depth="0" NCoef="0" IVar="16" Cut="8.0184474587440491e-02" cType="1" res="-8.9015178382396698e-03" rms="3.4343698620796204e-01" purity="4.9565762281417847e-01" nType="0">
        <Node pos="l" depth="1" NCoef="0" IVar="0" Cut="5.2844562530517578e+00" cType="1" res="2.1329628303647041e-02" rms="3.3433690667152405e-01" purity="7.2124230861663818e-01" nType="0">
          <Node pos="l" depth="2" NCoef="0" IVar="-1" Cut="0.0000000000000000e+00" cType="1" res="1.1026203632354736e-02" rms="3.2832360267639160e-01" purity="7.3839694261550903e-01" nType="-99"/>
          <Node pos="r" depth="2" NCoef="0" IVar="-1" Cut="0.0000000000000000e+00" cType="1" res="-2.8036590665578842e-02" rms="3.8858968019485474e-01" purity="4.7432249784469604e-01" nType="-99"/>
        </Node>
        <Node pos="r" depth="1" NCoef="0" IVar="1" Cut="4.7608277201652527e-01" cType="1" res="-3.7742212414741516e-02" rms="3.4947016835212708e-01" purity="2.8044858574867249e-01" nType="0">
          <Node pos="l" depth="2" NCoef="0" IVar="-1" Cut="0.0000000000000000e+00" cType="1" res="-1.8807721789926291e-03" rms="3.7203836441040039e-01" purity="3.5151737928390503e-01" nType="-99"/>
          <Node pos="r" depth="2" NCoef="0" IVar="-1" Cut="0.0000000000000000e+00" cType="1" res="-1.8035089597105980e-02" rms="3.2007494568824768e-01" purity="2.0356018841266632e-01" nType="-99"/>
        </Node>
      </Node>
    </BinaryTree>
    <BinaryTree type="DecisionTree" boostWeight="1.0000000000000000e+00" itree="48">
      <Node pos="s" depth="0" NCoef="0" IVar="18" Cut="9.0656483173370361e-01" cType="1" res="-9.1782184317708015e-03" rms="3.4640991687774658e-01" purity="4.9642184376716614e-01" nType="0">
        <Node pos="l" depth="1" NCoef="0" IVar="1" Cut="7.1417421102523804e-01" cType="1" res="-2.2453937679529190e-02" rms="3.4451964497566223e-01" purity="4.6639090776443481e-01" nType="0">
          <Node pos="l" depth="2" NCoef="0" IVar="-1" Cut="0.0000000000000000e+00" cType="1" res="-2.1147720981389284e-03" rms="3.4506332874298096e-01" purity="5.1497024297714233e-01" nType="-99"/>
          <Node pos="r" depth="2" NCoef="0" IVar="-1" Cut="0.0000000000000000e+00" cType="1" res="-2.1620536223053932e-02" rms="3.3624875545501709e-01" purity="2.8309759497642517e-01" nType="-99"/>
        </Node>
        <Node pos="r" depth="1" NCoef="0" IVar="19" Cut="3.4731936454772949e-01" cType="1" res="5.7799652218818665e-02" rms="3.4815773367881775e-01" purity="6.4793217182159424e-01" nType="0">
          <Node pos="l" depth="2" NCoef="0" IVar="-1" Cut="0.0000000000000000e+00" cType="1" res="3.7581790238618851e-02" rms="3.2846170663833618e-01" purity="7.9375648498535156e-01" nType="-99"/>
          <Node pos="r" depth="2" NCoef="0" IVar="-1" Cut="0.0000000000000000e+00" cType="1" res="-5.4495497606694698e-03" rms="3.7405261397361755e-01" purity="3.4157010912895203e-01" nType="-99"/>
        </Node>
      </Node>
    </BinaryTree>
    <BinaryTree type="DecisionTree" boostWeight="1.0000000000000000e+00" itree="49">
      <Node pos="s" depth="0" NCoef="0" IVar="19" Cut="-1.1156509816646576e-01" cType="1" res="-5.7899774983525276e-03" rms="3.4012642502784729e-01" purity="5.0240504741668701e-01" nType="0">
        <Node pos="l" depth="1" NCoef="0" IVar="17" Cut="7.5738057494163513e-02" cType="1" res="6.2636807560920715e-02" rms="3.2419553399085999e-01" purity="7.3267930746078491e-01" nType="0">
          <Node pos="l" depth="2" NCoef="0" IVar="-1" Cut="0.0000000000000000e+00" cType="1" res="2.9382390901446342e-02" rms="3.1904765963554382e-01" purity="7.7704119682312012e-01" nType="-99"/>
          <Node pos="r" depth="2" NCoef="0" IVar="-1" Cut="0.0000000000000000e+00" cType="1" res="-1.4669446973130107e-03" rms="3.3915212750434875e-01" purity="5.2610349655151367e-01" nType="-99"/>
        </Node>
        <Node pos="r" depth="1" NCoef="0" IVar="12" Cut="-1.5505088865756989e-01" cType="1" res="-2.1721186116337776e-02" rms="3.4176903963088989e-01" purity="4.4879233837127686e-01" nType="0">
          <Node pos="l" depth="2" NCoef="0" IVar="-1" Cut="0.0000000000000000e+00" cType="1" res="3.2486889511346817e-02" rms="2.2242486476898193e-01" purity="9.1921234130859375e-01" nType="-99"/>
          <Node pos="r" depth="2" NCoef="0" IVar="-1" Cut="0.0000000000000000e+00" cType="1" res="-8.8100396096706390e-03" rms="3.5511466860771179e-01" purity="3.7681725621223450e-01" nType="-99"/>
        </Node>
      </Node>
    </BinaryTree>
    <BinaryTree type="DecisionTree" boostWeight="1.0000000000000000e+00" itree="50">
      <Node pos="s" depth="0" NCoef="0" IVar="11" Cut="1.7144058644771576e-01" cType="1" res="-5.1417564973235130e-03" rms="3.4437790513038635e-01" purity="5.0572323799133301e-01" nType="0">
        <Node pos="l" depth="1" NCoef="0" IVar="1" Cut="8.0939656496047974e-01" cType="1" res="-1.6479983925819397e-02" rms="3.4081378579139709e-01" purity="4.8514056205749512e-01" nType="0">
          <Node pos="l" depth="2" NCoef="0" IVar="-1" Cut="0.0000000000000000e+00" cType="1" res="-1.6599280061200261e-03" rms="3.4173554182052612e-01" purity="5.2159416675567627e-01" nType="-99"/>
          <Node pos="r" depth="2" NCoef="0" IVar="-1" Cut="0.0000000000000000e+00" cType="1" res="-2.4614989757537842e-02" rms="3.2493534684181213e-01" purity="2.3932467401027679e-01" nType="-99"/>
        </Node>
        <Node pos="r" depth="1" NCoef="0" IVar="18" Cut="6.6341352462768555e-01" cType="1" res="7.1849294006824493e-02" rms="3.5829943418502808e-01" purity="6.4548724889755249e-01" nType="0">
          <Node pos="l" depth="2" NCoef="0" IVar="-1" Cut="0.0000000000000000e+00" cType="1" res="1.3752474449574947e-02" rms="3.5843056440353394e-01" purity="5.8664727210998535e-01" nType="-99"/>
          <Node pos="r" depth="2" NCoef="0" IVar="-1" Cut="0.0000000000000000e+00" cType="1" res="4.0581975132226944e-02" rms="3.5342615842819214e-01" purity="7.5104993581771851e-01" nType="-99"/>
        </Node>
      </Node>
    </BinaryTree>
    <BinaryTree type="DecisionTree" boostWeight="1.0000000000000000e+00" itree="51">
      <Node pos="s" depth="0" NCoef="0" IVar="12" Cut="5.3074288368225098e-01" cType="1" res="-5.4891989566385746e-03" rms="3.4252628684043884e-01" purity="5.0418919324874878e-01" nType="0">
        <Node pos="l" depth="1" NCoef="0" IVar="0" Cut="5.2718043327331543e+00" cType="1" res="1.1234787292778492e-02" rms="3.5163813829421997e-01" purity="6.2023121118545532e-01" nType="0">
          <Node pos="l" depth="2" NCoef="0" IVar="-1" Cut="0.0000000000000000e+00" cType="1" res="-2.6987038552761078e-02" rms="2.9400175809860229e-01" purity="1.4010351896286011e-01" nType="-99"/>
          <Node pos="r" depth="2" NCoef="0" IVar="-1" Cut="0.0000000000000000e+00" cType="1" res="6.1123124323785305e-03" rms="3.5337483882904053e-01" purity="6.4867526292800903e-01" nType="-99"/>
        </Node>
        <Node pos="r" depth="1" NCoef="0" IVar="11" Cut="1.9981630146503448e-01" cType="1" res="-5.7238165289163589e-02" rms="3.0693492293357849e-01" purity="1.4512088894844055e-01" nType="0">
          <Node pos="l" depth="2" NCoef="0" IVar="-1" Cut="0.0000000000000000e+00" cType="1" res="-1.7881799489259720e-02" rms="2.8877243399620056e-01" purity="1.2036361545324326e-01" nType="-99"/>
          <Node pos="r" depth="2" NCoef="0" IVar="-1" Cut="0.0000000000000000e+00" cType="1" res="7.9339044168591499e-03" rms="4.0599048137664795e-01" purity="3.2874742150306702e-01" nType="-99"/>
        </Node>
      </Node>
    </BinaryTree>
    <BinaryTree type="DecisionTree" boostWeight="1.0000000000000000e+00" itree="52">
      <Node pos="s" depth="0" NCoef="0" IVar="2" Cut="9.5238202810287476e-01" cType="1" res="-7.0612300187349319e-03" rms="3.4193170070648193e-01" purity="4.9680793285369873e-01" nType="0">
        <Node pos="l" depth="1" NCoef="0" IVar="1" Cut="6.1895316839218140e-01" cType="1" res="9.1816019266843796e-03" rms="3.5652124881744385e-01" purity="6.0980540513992310e-01" nType="0">
          <Node pos="l" depth="2" NCoef="0" IVar="-1" Cut="0.0000000000000000e+00" cType="1" res="9.6391662955284119e-03" rms="3.4761953353881836e-01" purity="6.6617351770401001e-01" nType="-99"/>
          <Node pos="r" depth="2" NCoef="0" IVar="-1" Cut="0.0000000000000000e+00" cType="1" res="-1.2459154240787029e-02" rms="3.7427881360054016e-01" purity="4.5712390542030334e-01" nType="-99"/>
        </Node>
        <Node pos="r" depth="1" NCoef="0" IVar="7" Cut="1.7201714217662811e-02" cType="1" res="-6.2915973365306854e-02" rms="2.7901473641395569e-01" purity="1.0823997855186462e-01" nType="0">
          <Node pos="l" depth="2" NCoef="0" IVar="-1" Cut="0.0000000000000000e+00" cType="1" res="-7.4650896713137627e-03" rms="3.4437161684036255e-01" purity="1.7801888287067413e-01" nType="-99"/>
          <Node pos="r" depth="2" NCoef="0" IVar="-1" Cut="0.0000000000000000e+00" cType="1" res="-2.7086997404694557e-02" rms="1.9670969247817993e-01" purity="4.4252716004848480e-02" nType="-99"/>
        </Node>
      </Node>
    </BinaryTree>
    <BinaryTree type="DecisionTree" boostWeight="1.0000000000000000e+00" itree="53">
      <Node pos="s" depth="0" NCoef="0" IVar="0" Cut="5.2754387855529785e+00" cType="1" res="-2.5313114747405052e-03" rms="3.4029433131217957e-01" purity="5.0361824035644531e-01" nType="0">
        <Node pos="l" depth="1" NCoef="0" IVar="2" Cut="5.2394205331802368e-01" cType="1" res="-5.8360904455184937e-02" rms="3.0232152342796326e-01" purity="1.9994083046913147e-01" nType="0">
          <Node pos="l" depth="2" NCoef="0" IVar="-1" Cut="0.0000000000000000e+00" cType="1" res="5.6432507699355483e-04" rms="4.0315282344818115e-01" purity="7.2102266550064087e-01" nType="-99"/>
          <Node pos="r" depth="2" NCoef="0" IVar="-1" Cut="0.0000000000000000e+00" cType="1" res="-1.9059460610151291e-02" rms="2.8231343626976013e-01" purity="1.1905222386121750e-01" nType="-99"/>
        </Node>
        <Node pos="r" depth="1" NCoef="0" IVar="0" Cut="5.2825608253479004e+00" cType="1" res="1.5177641995251179e-02" rms="3.4962570667266846e-01" purity="5.9994369745254517e-01" nType="0">
          <Node pos="l" depth="2" NCoef="0" IVar="-1" Cut="0.0000000000000000e+00" cType="1" res="1.0614468716084957e-02" rms="3.4745648503303528e-01" purity="6.4834314584732056e-01" nType="-99"/>
          <Node pos="r" depth="2" NCoef="0" IVar="-1" Cut="0.0000000000000000e+00" cType="1" res="-1.2894829735159874e-02" rms="3.5037574172019958e-01" purity="4.2768210172653198e-01" nType="-99"/>
        </Node>
      </Node>
    </BinaryTree>
    <BinaryTree type="DecisionTree" boostWeight="1.0000000000000000e+00" itree="54">
      <Node pos="s" depth="0" NCoef="0" IVar="11" Cut="4.5068979263305664e-02" cType="1" res="-1.0307820513844490e-02" rms="3.3921033143997192e-01" purity="4.9256917834281921e-01" nType="0">
        <Node pos="l" depth="1" NCoef="0" IVar="12" Cut="-1.7679788172245026e-01" cType="1" res="-2.8714193031191826e-02" rms="3.3777573704719543e-01" purity="4.4903507828712463e-01" nType="0">
          <Node pos="l" depth="2" NCoef="0" IVar="-1" Cut="0.0000000000000000e+00" cType="1" res="2.9078891500830650e-02" rms="2.1272525191307068e-01" purity="9.2592543363571167e-01" nType="-99"/>
          <Node pos="r" depth="2" NCoef="0" IVar="-1" Cut="0.0000000000000000e+00" cType="1" res="-1.0884434916079044e-02" rms="3.5084363818168640e-01" purity="3.8060188293457031e-01" nType="-99"/>
        </Node>
        <Node pos="r" depth="1" NCoef="0" IVar="1" Cut="8.0884635448455811e-01" cType="1" res="2.8086973354220390e-02" rms="3.3898174762725830e-01" purity="5.8337932825088501e-01" nType="0">
          <Node pos="l" depth="2" NCoef="0" IVar="-1" Cut="0.0000000000000000e+00" cType="1" res="1.2800850905478001e-02" rms="3.3621174097061157e-01" purity="6.2041360139846802e-01" nType="-99"/>
          <Node pos="r" depth="2" NCoef="0" IVar="-1" Cut="0.0000000000000000e+00" cType="1" res="-1.4114242047071457e-02" rms="3.4707164764404297e-01" purity="3.2838538289070129e-01" nType="-99"/>
        </Node>
      </Node>
    </BinaryTree>
    <BinaryTree type="DecisionTree" boostWeight="1.0000000000000000e+00" itree="55">
      <Node pos="s" depth="0" NCoef="0" IVar="0" Cut="5.2772598266601562e+00" cType="1" res="-3.1873336993157864e-03" rms="3.4549212455749512e-01" purity="5.0286871194839478e-01" nType="0">
        <Node pos="l" depth="1" NCoef="0" IVar="12" Cut="-1.2336444854736328e-01" cType="1" res="-4.0058616548776627e-02" rms="3.2803592085838318e-01" purity="3.1259980797767639e-01" nType="0">
          <Node pos="l" depth="2" NCoef="0" IVar="-1" Cut="0.0000000000000000e+00" cType="1" res="1.3015585951507092e-02" rms="3.0448436737060547e-01" purity="8.2263135910034180e-01" nType="-99"/>
          <Node pos="r" depth="2" NCoef="0" IVar="-1" Cut="0.0000000000000000e+00" cType="1" res="-1.4015581458806992e-02" rms="3.3004400134086609e-01" purity="2.3858273029327393e-01" nType="-99"/>
        </Node>
        <Node pos="r" depth="1" NCoef="0" IVar="0" Cut="5.2823152542114258e+00" cType="1" res="1.7936052754521370e-02" rms="3.5337716341018677e-01" purity="6.1187297105789185e-01" nType="0">
          <Node pos="l" depth="2" NCoef="0" IVar="-1" Cut="0.0000000000000000e+00" cType="1" res="1.4411036856472492e-02" rms="3.4884935617446899e-01" purity="6.8017882108688354e-01" nType="-99"/>
          <Node pos="r" depth="2" NCoef="0" IVar="-1" Cut="0.0000000000000000e+00" cType="1" res="-1.2595337815582752e-02" rms="3.5696053504943848e-01" purity="4.4001007080078125e-01" nType="-99"/>
        </Node>
      </Node>
    </BinaryTree>
    <BinaryTree type="DecisionTree" boostWeight="1.0000000000000000e+00" itree="56">
      <Node pos="s" depth="0" NCoef="0" IVar="1" Cut="5.2378201484680176e-01" cType="1" res="-3.2424875535070896e-03" rms="3.4047511219978333e-01" purity="5.0397515296936035e-01" nType="0">
        <Node pos="l" depth="1" NCoef="0" IVar="16" Cut="4.3814393877983093e-01" cType="1" res="1.7482060939073563e-02" rms="3.4052422642707825e-01" purity="5.7426697015762329e-01" nType="0">
          <Node pos="l" depth="2" NCoef="0" IVar="-1" Cut="0.0000000000000000e+00" cType="1" res="9.4125140458345413e-03" rms="3.4510806202888489e-01" purity="6.3920480012893677e-01" nType="-99"/>
          <Node pos="r" depth="2" NCoef="0" IVar="-1" Cut="0.0000000000000000e+00" cType="1" res="-1.5611082315444946e-02" rms="2.9601368308067322e-01" purity="1.2703213095664978e-01" nType="-99"/>
        </Node>
        <Node pos="r" depth="1" NCoef="0" IVar="19" Cut="-8.6904846131801605e-02" cType="1" res="-3.6174353212118149e-02" rms="3.3779156208038330e-01" purity="3.9227956533432007e-01" nType="0">
          <Node pos="l" depth="2" NCoef="0" IVar="-1" Cut="0.0000000000000000e+00" cType="1" res="8.6359567940235138e-03" rms="3.3783245086669922e-01" purity="6.1366415023803711e-01" nType="-99"/>
          <Node pos="r" depth="2" NCoef="0" IVar="-1" Cut="0.0000000000000000e+00" cType="1" res="-1.5092349611222744e-02" rms="3.3576196432113647e-01" purity="3.3105215430259705e-01" nType="-99"/>
        </Node>
      </Node>
    </BinaryTree>
    <BinaryTree type="DecisionTree" boostWeight="1.0000000000000000e+00" itree="57">
      <Node pos="s" depth="0" NCoef="0" IVar="18" Cut="7.0225936174392700e-01" cType="1" res="-3.9364239200949669e-03" rms="3.4418696165084839e-01" purity="5.0274890661239624e-01" nType="0">
        <Node pos="l" depth="1" NCoef="0" IVar="12" Cut="6.7053842544555664e-01" cType="1" res="-2.1424666047096252e-02" rms="3.4265798330307007e-01" purity="4.5234456658363342e-01" nType="0">
          <Node pos="l" depth="2" NCoef="0" IVar="-1" Cut="0.0000000000000000e+00" cType="1" res="-2.7390592731535435e-03" rms="3.5879236459732056e-01" purity="5.4107779264450073e-01" nType="-99"/>
          <Node pos="r" depth="2" NCoef="0" IVar="-1" Cut="0.0000000000000000e+00" cType="1" res="-1.9842583686113358e-02" rms="2.6192009449005127e-01" purity="9.4454206526279449e-02" nType="-99"/>
        </Node>
        <Node pos="r" depth="1" NCoef="0" IVar="19" Cut="2.8621357679367065e-01" cType="1" res="3.7450488656759262e-02" rms="3.4425756335258484e-01" purity="6.2203365564346313e-01" nType="0">
          <Node pos="l" depth="2" NCoef="0" IVar="-1" Cut="0.0000000000000000e+00" cType="1" res="2.3575838655233383e-02" rms="3.3324861526489258e-01" purity="7.3932880163192749e-01" nType="-99"/>
          <Node pos="r" depth="2" NCoef="0" IVar="-1" Cut="0.0000000000000000e+00" cType="1" res="-5.1950654014945030e-03" rms="3.6144939064979553e-01" purity="3.5789355635643005e-01" nType="-99"/>
        </Node>
      </Node>
    </BinaryTree>
    <BinaryTree type="DecisionTree" boostWeight="1.0000000000000000e+00" itree="58">
      <Node pos="s" depth="0" NCoef="0" IVar="0" Cut="5.2772617340087891e+00" cType="1" res="-8.3405077457427979e-03" rms="3.3974364399909973e-01" purity="4.9112552404403687e-01" nType="0">
        <Node pos="l" depth="1" NCoef="0" IVar="12" Cut="-2.3209567368030548e-01" cType="1" res="-4.2286094278097153e-02" rms="3.2417148351669312e-01" purity="3.0409038066864014e-01" nType="0">
          <Node pos="l" depth="2" NCoef="0" IVar="-1" Cut="0.0000000000000000e+00" cType="1" res="2.9861951246857643e-02" rms="2.3895423114299774e-01" purity="8.9537161588668823e-01" nType="-99"/>
          <Node pos="r" depth="2" NCoef="0" IVar="-1" Cut="0.0000000000000000e+00" cType="1" res="-1.4085703529417515e-02" rms="3.2838043570518494e-01" purity="2.5976589322090149e-01" nType="-99"/>
        </Node>
        <Node pos="r" depth="1" NCoef="0" IVar="0" Cut="5.2834396362304688e+00" cType="1" res="1.1266824789345264e-02" rms="3.4691125154495239e-01" purity="5.9915906190872192e-01" nType="0">
          <Node pos="l" depth="2" NCoef="0" IVar="-1" Cut="0.0000000000000000e+00" cType="1" res="9.6542453393340111e-03" rms="3.4619376063346863e-01" purity="6.5655630826950073e-01" nType="-99"/>
          <Node pos="r" depth="2" NCoef="0" IVar="-1" Cut="0.0000000000000000e+00" cType="1" res="-1.9596161320805550e-02" rms="3.3838176727294922e-01" purity="3.4105375409126282e-01" nType="-99"/>
        </Node>
      </Node>
    </BinaryTree>
    <BinaryTree type="DecisionTree" boostWeight="1.0000000000000000e+00" itree="59">
      <Node pos="s" depth="0" NCoef="0" IVar="12" Cut="7.2035801410675049e-01" cType="1" res="-4.8165107145905495e-03" rms="3.3837953209877014e-01" purity="5.0040334463119507e-01" nType="0">
        <Node pos="l" depth="1" NCoef="0" IVar="0" Cut="5.2736263275146484e+00" cType="1" res="5.3617949597537518e-03" rms="3.4713873267173767e-01" purity="5.6811136007308960e-01" nType="0">
          <Node pos="l" depth="2" NCoef="0" IVar="-1" Cut="0.0000000000000000e+00" cType="1" res="-1.7238197848200798e-02" rms="3.1027805805206299e-01" purity="1.6818751394748688e-01" nType="-99"/>
          <Node pos="r" depth="2" NCoef="0" IVar="-1" Cut="0.0000000000000000e+00" cType="1" res="5.4116309620440006e-03" rms="3.5136318206787109e-01" purity="6.3134592771530151e-01" nType="-99"/>
        </Node>
        <Node pos="r" depth="1" NCoef="0" IVar="18" Cut="4.7125822305679321e-01" cType="1" res="-6.4626879990100861e-02" rms="2.7391618490219116e-01" purity="1.0253368318080902e-01" nType="0">
          <Node pos="l" depth="2" NCoef="0" IVar="-1" Cut="0.0000000000000000e+00" cType="1" res="-2.3690324276685715e-02" rms="2.4095340073108673e-01" purity="7.3938675224781036e-02" nType="-99"/>
          <Node pos="r" depth="2" NCoef="0" IVar="-1" Cut="0.0000000000000000e+00" cType="1" res="-8.7520005181431770e-03" rms="3.1828275322914124e-01" purity="1.4969971776008606e-01" nType="-99"/>
        </Node>
      </Node>
    </BinaryTree>
    <BinaryTree type="DecisionTree" boostWeight="1.0000000000000000e+00" itree="60">
      <Node pos="s" depth="0" NCoef="0" IVar="0" Cut="5.2853598594665527e+00" cType="1" res="-3.0049527995288372e-03" rms="3.4000611305236816e-01" purity="5.0139141082763672e-01" nType="0">
        <Node pos="l" depth="1" NCoef="0" IVar="0" Cut="5.2721972465515137e+00" cType="1" res="2.7102730236947536e-03" rms="3.3984911441802979e-01" purity="5.1559054851531982e-01" nType="0">
          <Node pos="l" depth="2" NCoef="0" IVar="-1" Cut="0.0000000000000000e+00" cType="1" res="-2.4736342951655388e-02" rms="2.4379150569438934e-01" purity="9.3586601316928864e-02" nType="-99"/>
          <Node pos="r" depth="2" NCoef="0" IVar="-1" Cut="0.0000000000000000e+00" cType="1" res="3.6644292995333672e-03" rms="3.4717890620231628e-01" purity="5.5960589647293091e-01" nType="-99"/>
        </Node>
        <Node pos="r" depth="1" NCoef="0" IVar="-1" Cut="0.0000000000000000e+00" cType="1" res="-3.1528446823358536e-02" rms="3.2115855813026428e-01" purity="2.0748338103294373e-01" nType="-99"/>
      </Node>
    </BinaryTree>
    <BinaryTree type="DecisionTree" boostWeight="1.0000000000000000e+00" itree="61">
      <Node pos="s" depth="0" NCoef="0" IVar="16" Cut="4.0525215864181519e-01" cType="1" res="-4.4799959287047386e-03" rms="3.3911982178688049e-01" purity="5.0033062696456909e-01" nType="0">
        <Node pos="l" depth="1" NCoef="0" IVar="14" Cut="2.5985006242990494e-02" cType="1" res="6.4992695115506649e-03" rms="3.4977978467941284e-01" purity="5.8019822835922241e-01" nType="0">
          <Node pos="l" depth="2" NCoef="0" IVar="-1" Cut="0.0000000000000000e+00" cType="1" res="1.0426657274365425e-02" rms="3.5607242584228516e-01" purity="6.7772567272186279e-01" nType="-99"/>
          <Node pos="r" depth="2" NCoef="0" IVar="-1" Cut="0.0000000000000000e+00" cType="1" res="-5.7450481690466404e-03" rms="3.4141317009925842e-01" purity="4.8092398047447205e-01" nType="-99"/>
        </Node>
        <Node pos="r" depth="1" NCoef="0" IVar="16" Cut="6.6066992282867432e-01" cType="1" res="-5.8637220412492752e-02" rms="2.7431857585906982e-01" purity="1.0636907070875168e-01" nType="0">
